{"learner":{"attributes":{"best_iteration":"999","best_ntree_limit":"1000"},"feature_names":["item","store","year","quarter","month","weekofyear","weekday","dayofweek"],"feature_types":["int","int","int","int","int","int","int","int"],"gradient_booster":{"model":{"gbtree_model_param":{"num_parallel_tree":"1","num_trees":"1000","size_leaf_vector":"0"},"tree_info":[0,0,0,0,0,0,0,0,0,0,0,0,0,0,0,0,0,0,0,0,0,0,0,0,0,0,0,0,0,0,0,0,0,0,0,0,0,0,0,0,0,0,0,0,0,0,0,0,0,0,0,0,0,0,0,0,0,0,0,0,0,0,0,0,0,0,0,0,0,0,0,0,0,0,0,0,0,0,0,0,0,0,0,0,0,0,0,0,0,0,0,0,0,0,0,0,0,0,0,0,0,0,0,0,0,0,0,0,0,0,0,0,0,0,0,0,0,0,0,0,0,0,0,0,0,0,0,0,0,0,0,0,0,0,0,0,0,0,0,0,0,0,0,0,0,0,0,0,0,0,0,0,0,0,0,0,0,0,0,0,0,0,0,0,0,0,0,0,0,0,0,0,0,0,0,0,0,0,0,0,0,0,0,0,0,0,0,0,0,0,0,0,0,0,0,0,0,0,0,0,0,0,0,0,0,0,0,0,0,0,0,0,0,0,0,0,0,0,0,0,0,0,0,0,0,0,0,0,0,0,0,0,0,0,0,0,0,0,0,0,0,0,0,0,0,0,0,0,0,0,0,0,0,0,0,0,0,0,0,0,0,0,0,0,0,0,0,0,0,0,0,0,0,0,0,0,0,0,0,0,0,0,0,0,0,0,0,0,0,0,0,0,0,0,0,0,0,0,0,0,0,0,0,0,0,0,0,0,0,0,0,0,0,0,0,0,0,0,0,0,0,0,0,0,0,0,0,0,0,0,0,0,0,0,0,0,0,0,0,0,0,0,0,0,0,0,0,0,0,0,0,0,0,0,0,0,0,0,0,0,0,0,0,0,0,0,0,0,0,0,0,0,0,0,0,0,0,0,0,0,0,0,0,0,0,0,0,0,0,0,0,0,0,0,0,0,0,0,0,0,0,0,0,0,0,0,0,0,0,0,0,0,0,0,0,0,0,0,0,0,0,0,0,0,0,0,0,0,0,0,0,0,0,0,0,0,0,0,0,0,0,0,0,0,0,0,0,0,0,0,0,0,0,0,0,0,0,0,0,0,0,0,0,0,0,0,0,0,0,0,0,0,0,0,0,0,0,0,0,0,0,0,0,0,0,0,0,0,0,0,0,0,0,0,0,0,0,0,0,0,0,0,0,0,0,0,0,0,0,0,0,0,0,0,0,0,0,0,0,0,0,0,0,0,0,0,0,0,0,0,0,0,0,0,0,0,0,0,0,0,0,0,0,0,0,0,0,0,0,0,0,0,0,0,0,0,0,0,0,0,0,0,0,0,0,0,0,0,0,0,0,0,0,0,0,0,0,0,0,0,0,0,0,0,0,0,0,0,0,0,0,0,0,0,0,0,0,0,0,0,0,0,0,0,0,0,0,0,0,0,0,0,0,0,0,0,0,0,0,0,0,0,0,0,0,0,0,0,0,0,0,0,0,0,0,0,0,0,0,0,0,0,0,0,0,0,0,0,0,0,0,0,0,0,0,0,0,0,0,0,0,0,0,0,0,0,0,0,0,0,0,0,0,0,0,0,0,0,0,0,0,0,0,0,0,0,0,0,0,0,0,0,0,0,0,0,0,0,0,0,0,0,0,0,0,0,0,0,0,0,0,0,0,0,0,0,0,0,0,0,0,0,0,0,0,0,0,0,0,0,0,0,0,0,0,0,0,0,0,0,0,0,0,0,0,0,0,0,0,0,0,0,0,0,0,0,0,0,0,0,0,0,0,0,0,0,0,0,0,0,0,0,0,0,0,0,0,0,0,0,0,0,0,0,0,0,0,0,0,0,0,0,0,0,0,0,0,0,0,0,0,0,0,0,0,0,0,0,0,0,0,0,0,0,0,0,0,0,0,0,0,0,0,0,0,0,0,0,0,0,0,0,0,0,0,0,0,0,0,0,0,0,0,0,0,0,0,0,0,0,0,0,0,0,0,0,0,0,0,0,0,0,0,0,0,0,0,0,0,0,0,0,0,0,0,0,0,0,0,0,0,0,0,0,0,0,0,0,0,0,0,0,0,0,0,0,0,0,0,0,0,0,0,0,0,0,0,0,0,0,0,0,0,0,0,0,0,0,0,0,0,0,0,0,0,0,0,0,0,0,0,0,0,0,0,0,0,0,0,0,0,0,0,0,0,0,0,0,0,0,0,0,0,0,0,0,0,0,0,0,0,0,0,0,0,0,0,0,0,0,0,0,0,0,0,0,0,0,0,0,0,0,0,0,0,0,0,0,0,0,0,0,0,0,0,0,0,0,0,0],"trees":[{"base_weights":[5.172107E1,3.0974417E1,5.403157E1,3.8538467E1,1.9641485E1,6.8296974E1,4.995694E1,2.1430666E1,4.709105E1,1.5135505E1,2.1121271E1,5.321429E1,7.325624E1,3.8887962E1,5.3583035E1],"categories":[],"categories_nodes":[],"categories_segments":[],"categories_sizes":[],"default_left":[1,1,1,1,1,1,1,0,0,0,0,0,0,0,0],"id":0,"left_children":[1,3,5,7,9,11,13,-1,-1,-1,-1,-1,-1,-1,-1],"loss_changes":[3.5010176E7,6.273648E6,3.819763E7,6.421524E6,1.95049E5,1.0917504E7,2.0516096E7,0E0,0E0,0E0,0E0,0E0,0E0,0E0,0E0],"parents":[2147483647,0,0,1,1,2,2,3,3,4,4,5,5,6,6],"right_children":[2,4,6,8,10,12,14,-1,-1,-1,-1,-1,-1,-1,-1],"split_conditions":[5.5E0,3.5E0,1.55E1,1.5E0,1.5E0,1.5E0,1.5E0,4.2861333E0,9.41821E0,3.027101E0,4.224254E0,1.06428585E1,1.4651248E1,7.7775927E0,1.0716607E1],"split_indices":[0,0,0,0,3,3,3,0,0,0,0,0,0,0,0],"split_type":[0,0,0,0,0,0,0,0,0,0,0,0,0,0,0],"sum_hessian":[7.304E5,7.3193E4,6.57207E5,4.3894E4,2.9299E4,1.46009E5,5.11198E5,1.4631E4,2.9263E4,7.246E3,2.2053E4,3.6132E4,1.09877E5,1.26144E5,3.85054E5],"tree_param":{"num_deleted":"0","num_feature":"8","num_nodes":"15","size_leaf_vector":"0"}},{"base_weights":[4.1376945E1,2.8677315E1,4.3834385E1,1.6153769E1,3.0074102E1,3.8764896E1,5.0579834E1,1.9715376E1,1.0816569E1,3.27251E1,2.275299E1,2.3418964E1,4.0476933E1,3.0503544E1,5.2808693E1],"categories":[],"categories_nodes":[],"categories_segments":[],"categories_sizes":[],"default_left":[1,1,1,1,1,1,1,0,0,0,0,0,0,0,0],"id":1,"left_children":[1,3,5,7,9,11,13,-1,-1,-1,-1,-1,-1,-1,-1],"loss_changes":[2.2793472E7,2.071072E6,2.0925184E7,2.2570875E5,2.067008E6,9.17872E6,1.174816E7,0E0,0E0,0E0,0E0,0E0,0E0,0E0,0E0],"parents":[2147483647,0,0,1,1,2,2,3,3,4,4,5,5,6,6],"right_children":[2,4,6,8,10,12,14,-1,-1,-1,-1,-1,-1,-1,-1],"split_conditions":[2.5E0,5.5E0,3.5E0,3.5E0,3.85E1,5.5E0,5.5E0,3.9430752E0,2.1633139E0,6.5450206E0,4.550598E0,4.683793E0,8.0953865E0,6.100709E0,1.0561739E1],"split_indices":[4,0,6,0,0,0,0,0,0,0,0,0,0,0,0],"split_type":[0,0,0,0,0,0,0,0,0,0,0,0,0,0,0],"sum_hessian":[7.304E5,1.18423E5,6.11977E5,1.1884E4,1.06539E5,3.49397E5,2.6258E5,7.126E3,4.758E3,7.8214E4,2.8325E4,3.5069E4,3.14328E5,2.624E4,2.3634E5],"tree_param":{"num_deleted":"0","num_feature":"8","num_nodes":"15","size_leaf_vector":"0"}},{"base_weights":[3.310162E1,3.5817875E1,2.4495138E1,1.9824087E1,3.82466E1,1.656357E1,3.2420727E1,2.576047E1,1.0929978E1,2.6180162E1,4.05839E1,2.5045914E1,1.4868943E1,6.1640144E1,2.6542921E1],"categories":[],"categories_nodes":[],"categories_segments":[],"categories_sizes":[],"default_left":[1,1,1,1,1,1,1,0,0,0,0,0,0,0,0],"id":2,"left_children":[1,3,5,7,9,11,13,-1,-1,-1,-1,-1,-1,-1,-1],"loss_changes":[1.7074048E7,2.1564928E7,1.1014328E7,3.864278E6,1.359232E7,1.258538E6,1.5050696E7,0E0,0E0,0E0,0E0,0E0,0E0,0E0,0E0],"parents":[2147483647,0,0,1,1,2,2,3,3,4,4,5,5,6,6],"right_children":[2,4,6,8,10,12,14,-1,-1,-1,-1,-1,-1,-1,-1],"split_conditions":[3.85E1,5.5E0,4.45E1,3.5E0,2.5E0,3.95E1,4.55E1,5.152094E0,2.1859958E0,5.2360325E0,8.11678E0,5.009183E0,2.9737887E0,1.2328029E1,5.308584E0],"split_indices":[0,0,0,0,4,0,0,0,0,0,0,0,0,0,0],"split_type":[0,0,0,0,0,0,0,0,0,0,0,0,0,0,0],"sum_hessian":[7.304E5,5.55179E5,1.75221E5,7.3193E4,4.81986E5,8.7579E4,8.7642E4,4.3894E4,2.9299E4,7.8214E4,4.03772E5,1.4581E4,7.2998E4,1.4676E4,7.2966E4],"tree_param":{"num_deleted":"0","num_feature":"8","num_nodes":"15","size_leaf_vector":"0"}},{"base_weights":[2.648136E1,2.1089617E1,3.0521929E1,1.8432333E1,2.7305506E1,2.7234745E1,3.8218807E1,2.5430983E1,9.113112E0,2.1763811E1,3.1041332E1,3.5899208E1,1.5665337E1,3.1520565E1,4.2657677E1],"categories":[],"categories_nodes":[],"categories_segments":[],"categories_sizes":[],"default_left":[1,1,1,1,1,1,1,0,0,0,0,0,0,0,0],"id":3,"left_children":[1,3,5,7,9,11,13,-1,-1,-1,-1,-1,-1,-1,-1],"loss_changes":[1.591168E7,5.1676E6,1.0562464E7,1.4295776E7,1.939176E6,2.9327248E7,3.713632E6,0E0,0E0,0E0,0E0,0E0,0E0,0E0,0E0],"parents":[2147483647,0,0,1,1,2,2,3,3,4,4,5,5,6,6],"right_children":[2,4,6,8,10,12,14,-1,-1,-1,-1,-1,-1,-1,-1],"split_conditions":[2.5E0,7.5E0,7.5E0,4.5E0,2.0145E3,4.5E0,2.0145E3,5.0861964E0,1.8226225E0,4.352762E0,6.2082667E0,7.1798415E0,3.1330674E0,6.304113E0,8.531535E0],"split_indices":[6,1,1,1,2,1,2,0,0,0,0,0,0,0,0],"split_type":[0,0,0,0,0,0,0,0,0,0,0,0,0,0,0],"sum_hessian":[7.304E5,3.12888E5,4.17512E5,2.19189E5,9.3699E4,2.92567E5,1.24945E5,1.25179E5,9.401E4,3.7733E4,5.5966E4,1.67284E5,1.25283E5,4.9802E4,7.5143E4],"tree_param":{"num_deleted":"0","num_feature":"8","num_nodes":"15","size_leaf_vector":"0"}},{"base_weights":[2.1185146E1,2.2518858E1,6.8029313E0,1.4344058E1,2.5540634E1,4.1171894E0,1.0815277E1,1.1661745E1,1.8338478E1,2.1675312E1,3.1334892E1,2.4478028E0,8.02116E0,1.2506369E1,5.406927E0],"categories":[],"categories_nodes":[],"categories_segments":[],"categories_sizes":[],"default_left":[1,1,1,1,1,1,1,0,0,0,0,0,0,0,0],"id":4,"left_children":[1,3,5,7,9,11,13,-1,-1,-1,-1,-1,-1,-1,-1],"loss_changes":[1.4010208E7,1.6511136E7,6.679245E5,1.932612E6,1.0929344E7,2.4198494E5,2.272475E5,0E0,0E0,0E0,0E0,0E0,0E0,0E0,0E0],"parents":[2147483647,0,0,1,1,2,2,3,3,4,4,5,5,6,6],"right_children":[2,4,6,8,10,12,14,-1,-1,-1,-1,-1,-1,-1,-1],"split_conditions":[1.15E1,1.5E0,2.0155E3,2.0155E3,2.0155E3,7.5E0,3.85E1,2.332349E0,3.6676958E0,4.3350625E0,6.2669787E0,4.8956057E-1,1.6042321E0,2.5012739E0,1.0813855E0],"split_indices":[4,3,2,2,2,1,0,0,0,0,0,0,0,0,0],"split_type":[0,0,0,0,0,0,0,0,0,0,0,0,0,0,0],"sum_hessian":[7.304E5,6.68415E5,6.1985E4,1.80396E5,4.88019E5,3.7132E4,2.4853E4,1.07926E5,7.247E4,2.92739E5,1.9528E5,2.6011E4,1.1121E4,1.8932E4,5.921E3],"tree_param":{"num_deleted":"0","num_feature":"8","num_nodes":"15","size_leaf_vector":"0"}},{"base_weights":[1.6948147E1,1.4467729E1,2.3136742E1,7.347312E0,1.6248102E1,2.5755854E1,1.48458185E1,5.249804E0,1.2264286E1,1.8339567E1,9.623635E0,9.689765E0,2.8191185E1,1.25589E1,4.0230568E1],"categories":[],"categories_nodes":[],"categories_segments":[],"categories_sizes":[],"default_left":[1,1,1,1,1,1,1,0,0,0,0,0,0,0,0],"id":5,"left_children":[1,3,5,7,9,11,13,-1,-1,-1,-1,-1,-1,-1,-1],"loss_changes":[1.1211536E7,6.609896E6,4.537672E6,1.075602E6,5.778968E6,6.21348E6,2.912123E6,0E0,0E0,0E0,0E0,0E0,0E0,0E0,0E0],"parents":[2147483647,0,0,1,1,2,2,3,3,4,4,5,5,6,6],"right_children":[2,4,6,8,10,12,14,-1,-1,-1,-1,-1,-1,-1,-1],"split_conditions":[4.5E0,2.0135E3,3.85E1,7.5E0,3.85E1,5.5E0,4.95E1,1.0499609E0,2.4528573E0,3.6679134E0,1.9247271E0,1.937953E0,5.638237E0,2.51178E0,8.046114E0],"split_indices":[6,2,0,1,0,0,0,0,0,0,0,0,0,0,0],"split_type":[0,0,0,0,0,0,0,0,0,0,0,0,0,0,0],"sum_hessian":[7.304E5,5.21417E5,2.08983E5,1.04297E5,4.1712E5,1.58812E5,5.0171E4,7.3111E4,3.1186E4,3.17027E5,1.00093E5,2.0905E4,1.37907E5,4.6026E4,4.145E3],"tree_param":{"num_deleted":"0","num_feature":"8","num_nodes":"15","size_leaf_vector":"0"}},{"base_weights":[1.3558555E1,1.1222501E1,1.902622E1,1.7585255E1,2.7366896E0,6.0775023E0,2.0467386E1,7.679815E0,2.0884745E1,3.4812875E0,-5.2451625E0,1.1823863E1,-2.5607965E0,3.2471012E1,1.704367E1],"categories":[],"categories_nodes":[],"categories_segments":[],"categories_sizes":[],"default_left":[1,1,1,1,1,1,1,0,0,0,0,0,0,0,0],"id":6,"left_children":[1,3,5,7,9,11,13,-1,-1,-1,-1,-1,-1,-1,-1],"loss_changes":[9.329008E6,2.7631308E7,4.080072E6,9.558416E6,1.3033416E6,1.08707E6,8.085152E6,0E0,0E0,0E0,0E0,0E0,0E0,0E0,0E0],"parents":[2147483647,0,0,1,1,2,2,3,3,4,4,5,5,6,6],"right_children":[2,4,6,8,10,12,14,-1,-1,-1,-1,-1,-1,-1,-1],"split_conditions":[7.5E0,4.5E0,5.5E0,1.5E0,1.15E1,3.5E0,1.55E1,1.5359629E0,4.176949E0,6.9625753E-1,-1.0490326E0,2.3647726E0,-5.121593E-1,6.4942026E0,3.408734E0],"split_indices":[1,1,0,1,4,0,0,0,0,0,0,0,0,0,0],"split_type":[0,0,0,0,0,0,0,0,0,0,0,0,0,0,0],"sum_hessian":[7.304E5,5.11756E5,2.18644E5,2.92463E5,2.19293E5,2.1898E4,1.96746E5,7.3078E4,2.19385E5,2.00582E5,1.8711E4,1.315E4,8.748E3,4.3661E4,1.53085E5],"tree_param":{"num_deleted":"0","num_feature":"8","num_nodes":"15","size_leaf_vector":"0"}},{"base_weights":[1.0846868E1,2.4687388E0,1.2237445E1,3.2430797E0,-5.9281874E0,5.234512E0,1.398786E1,-1.1401953E0,4.8515534E0,-7.08057E0,-3.931628E0,6.080589E0,-4.111072E0,1.5111032E1,1.9618379E0],"categories":[],"categories_nodes":[],"categories_segments":[],"categories_sizes":[],"default_left":[1,1,1,1,1,1,1,0,0,0,0,0,0,0,0],"id":7,"left_children":[1,3,5,7,9,11,13,-1,-1,-1,-1,-1,-1,-1,-1],"loss_changes":[8.509464E6,6.7606675E5,7.678704E6,6.711738E5,2.0170906E4,9.90537E5,6.76928E6,0E0,0E0,0E0,0E0,0E0,0E0,0E0,0E0],"parents":[2147483647,0,0,1,1,2,2,3,3,4,4,5,5,6,6],"right_children":[2,4,6,8,10,12,14,-1,-1,-1,-1,-1,-1,-1,-1],"split_conditions":[5E-1,1.15E1,2.0135E3,1.5E0,2.0155E3,1.15E1,1.15E1,-2.2803906E-1,9.703107E-1,-1.4161141E0,-7.8632563E-1,1.2161177E0,-8.222144E-1,3.0222063E0,3.9236757E-1],"split_indices":[6,4,2,3,2,4,4,0,0,0,0,0,0,0,0],"split_type":[0,0,0,0,0,0,0,0,0,0,0,0,0,0,0],"sum_hessian":[7.304E5,1.03973E5,6.26427E5,9.5195E4,8.778E3,1.25268E5,5.01159E5,2.5555E4,6.964E4,5.564E3,3.214E3,1.14869E5,1.0399E4,4.58351E5,4.2808E4],"tree_param":{"num_deleted":"0","num_feature":"8","num_nodes":"15","size_leaf_vector":"0"}},{"base_weights":[8.677498E0,1.3443717E0,1.00965185E1,-6.2929873E0,2.1963396E0,1.3090762E1,5.589034E0,-1.383255E1,-4.378802E0,8.390118E0,4.220255E-1,7.613102E0,1.5807911E1,7.537062E0,-1.3961457E-1],"categories":[],"categories_nodes":[],"categories_segments":[],"categories_sizes":[],"default_left":[1,1,1,1,1,1,1,0,0,0,0,0,0,0,0],"id":8,"left_children":[1,3,5,7,9,11,13,-1,-1,-1,-1,-1,-1,-1,-1],"loss_changes":[7.600436E6,7.705734E5,8.259496E6,1.7146522E5,1.1708399E6,5.472764E6,2.725915E6,0E0,0E0,0E0,0E0,0E0,0E0,0E0,0E0],"parents":[2147483647,0,0,1,1,2,2,3,3,4,4,5,5,6,6],"right_children":[2,4,6,8,10,12,14,-1,-1,-1,-1,-1,-1,-1,-1],"split_conditions":[2.5E0,5.5E0,8.5E0,1.5E0,1.55E1,4.5E0,1.15E1,-2.76651E0,-8.757604E-1,1.6780236E0,8.44051E-2,1.5226204E0,3.1615822E0,1.5074124E0,-2.7922913E-2],"split_indices":[4,0,4,0,0,4,4,0,0,0,0,0,0,0,0],"split_type":[0,0,0,0,0,0,0,0,0,0,0,0,0,0,0],"sum_hessian":[7.304E5,1.18423E5,6.11977E5,1.1884E4,1.06539E5,3.67711E5,2.44266E5,2.405E3,9.479E3,2.3723E4,8.2816E4,1.21923E5,2.45788E5,1.82281E5,6.1985E4],"tree_param":{"num_deleted":"0","num_feature":"8","num_nodes":"15","size_leaf_vector":"0"}},{"base_weights":[6.9420037E0,8.671534E0,1.4620569E0,-2.1243064E0,1.031096E1,-7.407019E0,5.8930907E0,2.3224416E0,-8.786009E0,1.715052E1,7.3385787E0,2.0031025E0,-1.0539976E1,1.2274393E1,-4.978221E-1],"categories":[],"categories_nodes":[],"categories_segments":[],"categories_sizes":[],"default_left":[1,1,1,1,1,1,1,0,0,0,0,0,0,0,0],"id":9,"left_children":[1,3,5,7,9,11,13,-1,-1,-1,-1,-1,-1,-1,-1],"loss_changes":[6.922528E6,9.826144E6,6.8861245E6,2.1682398E6,9.79856E6,1.721063E6,4.76526E6,0E0,0E0,0E0,0E0,0E0,0E0,0E0,0E0],"parents":[2147483647,0,0,1,1,2,2,3,3,4,4,5,5,6,6],"right_children":[2,4,6,8,10,12,14,-1,-1,-1,-1,-1,-1,-1,-1],"split_conditions":[3.85E1,5.5E0,4.25E1,3.5E0,1.55E1,3.95E1,4.65E1,4.6448833E-1,-1.7572018E0,3.430104E0,1.4677157E0,4.0062052E-1,-2.1079953E0,2.4548786E0,-9.9564426E-2],"split_indices":[0,0,0,0,0,0,0,0,0,0,0,0,0,0,0],"split_type":[0,0,0,0,0,0,0,0,0,0,0,0,0,0,0],"sum_hessian":[7.304E5,5.55179E5,1.75221E5,7.3193E4,4.81986E5,5.8376E4,1.16845E5,4.3894E4,2.9299E4,1.46009E5,3.35977E5,1.4581E4,4.3795E4,5.8466E4,5.8379E4],"tree_param":{"num_deleted":"0","num_feature":"8","num_nodes":"15","size_leaf_vector":"0"}},{"base_weights":[5.5536084E0,2.9065664E0,9.076426E0,8.483716E-1,6.000834E0,4.7825375E0,1.1921874E1,-6.520959E-1,4.352822E0,1.0446005E1,4.092075E0,2.5677464E0,9.969378E0,1.7406836E1,9.572255E0],"categories":[],"categories_nodes":[],"categories_segments":[],"categories_sizes":[],"default_left":[1,1,1,1,1,1,1,0,0,0,0,0,0,0,0],"id":10,"left_children":[1,3,5,7,9,11,13,-1,-1,-1,-1,-1,-1,-1,-1],"loss_changes":[6.810996E6,2.6559578E6,3.82861E6,1.3169528E6,1.413434E6,1.4347395E6,2.428728E6,0E0,0E0,0E0,0E0,0E0,0E0,0E0,0E0],"parents":[2147483647,0,0,1,1,2,2,3,3,4,4,5,5,6,6],"right_children":[2,4,6,8,10,12,14,-1,-1,-1,-1,-1,-1,-1,-1],"split_conditions":[3.5E0,2.0155E3,2.0145E3,7.5E0,3.5E0,7.5E0,3.5E0,-1.3041918E-1,8.705644E-1,2.089201E0,8.18415E-1,5.1354927E-1,1.9938757E0,3.481367E0,1.914451E0],"split_indices":[6,2,2,1,1,1,1,0,0,0,0,0,0,0,0],"split_type":[0,0,0,0,0,0,0,0,0,0,0,0,0,0,0],"sum_hessian":[7.304E5,4.17039E5,3.13361E5,2.5045E5,1.66589E5,1.24894E5,1.88467E5,1.75366E5,7.5084E4,5.0043E4,1.16546E5,8.7523E4,3.7371E4,5.652E4,1.31947E5],"tree_param":{"num_deleted":"0","num_feature":"8","num_nodes":"15","size_leaf_vector":"0"}},{"base_weights":[4.4429026E0,2.6643388E0,8.605761E0,7.53112E0,-3.8263128E0,2.531982E0,1.0597176E1,-5.656428E-1,1.0228173E1,-4.0861707E0,9.232215E0,-1.2706282E0,4.529857E0,1.4500867E1,5.700609E0],"categories":[],"categories_nodes":[],"categories_segments":[],"categories_sizes":[],"default_left":[1,1,1,1,1,1,1,0,0,0,0,0,0,0,0],"id":11,"left_children":[1,3,5,7,9,11,13,-1,-1,-1,-1,-1,-1,-1,-1],"loss_changes":[5.407799E6,1.6165706E7,2.644576E6,6.386659E6,7.4418175E5,4.1016022E5,3.147302E6,0E0,0E0,0E0,0E0,0E0,0E0,0E0,0E0],"parents":[2147483647,0,0,1,1,2,2,3,3,4,4,5,5,6,6],"right_children":[2,4,6,8,10,12,14,-1,-1,-1,-1,-1,-1,-1,-1],"split_conditions":[7.5E0,4.5E0,1.5E0,1.5E0,4.95E1,1.5E0,8.5E0,-1.1312856E-1,2.0456347E0,-8.1723416E-1,1.846443E0,-2.5412565E-1,9.0597147E-1,2.9001734E0,1.1401218E0],"split_indices":[1,1,3,1,0,4,4,0,0,0,0,0,0,0,0],"split_type":[0,0,0,0,0,0,0,0,0,0,0,0,0,0,0],"sum_hessian":[7.304E5,5.11756E5,2.18644E5,2.92463E5,2.19293E5,5.3987E4,1.64657E5,7.3078E4,2.19385E5,2.15015E5,4.278E3,1.8595E4,3.5392E4,9.1616E4,7.3041E4],"tree_param":{"num_deleted":"0","num_feature":"8","num_nodes":"15","size_leaf_vector":"0"}},{"base_weights":[3.5543325E0,-2.6272545E0,4.5803413E0,-2.914682E0,1.170042E1,-7.815857E-2,6.109915E0,-2.2823184E0,-1.2534353E1,5.1310644E0,1.3319602E1,-3.158393E0,1.5567228E0,9.205921E0,2.2379599E0],"categories":[],"categories_nodes":[],"categories_segments":[],"categories_sizes":[],"default_left":[1,1,1,1,1,1,1,0,0,0,0,0,0,0,0],"id":12,"left_children":[1,3,5,7,9,11,13,-1,-1,-1,-1,-1,-1,-1,-1],"loss_changes":[4.632481E6,4.282162E5,4.463624E6,6.200249E5,2.1684281E4,7.79761E5,5.653174E6,0E0,0E0,0E0,0E0,0E0,0E0,0E0,0E0],"parents":[2147483647,0,0,1,1,2,2,3,3,4,4,5,5,6,6],"right_children":[2,4,6,8,10,12,14,-1,-1,-1,-1,-1,-1,-1,-1],"split_conditions":[5E-1,4.95E1,1.5E0,4.65E1,2.0135E3,1.5E0,8.5E0,-4.5646366E-1,-2.5068707E0,1.0262129E0,2.6639204E0,-6.316786E-1,3.1134456E-1,1.8411843E0,4.47592E-1],"split_indices":[6,0,3,0,2,4,4,0,0,0,0,0,0,0,0],"split_type":[0,0,0,0,0,0,0,0,0,0,0,0,0,0,0],"sum_hessian":[7.304E5,1.03973E5,6.26427E5,1.01929E5,2.044E3,1.54841E5,4.71586E5,9.5643E4,6.286E3,4.05E2,1.639E3,5.3688E4,1.01153E5,2.6205E5,2.09536E5],"tree_param":{"num_deleted":"0","num_feature":"8","num_nodes":"15","size_leaf_vector":"0"}},{"base_weights":[2.8434696E0,4.2338867E0,-1.5619974E0,3.5530014E0,2.9463652E1,-3.363814E0,1.8371094E1,4.25212E0,-2.1689413E1,2.0244076E1,3.248995E1,-7.2915096E0,1.3407859E0,1.5704312E1,2.4563145E1],"categories":[],"categories_nodes":[],"categories_segments":[],"categories_sizes":[],"default_left":[1,1,1,1,1,1,1,0,0,0,0,0,0,0,0],"id":13,"left_children":[1,3,5,7,9,11,13,-1,-1,-1,-1,-1,-1,-1,-1],"loss_changes":[4.474032E6,9.5371E6,6.2932955E6,9.540157E6,4.06393E5,2.9694065E6,2.394795E5,0E0,0E0,0E0,0E0,0E0,0E0,0E0,0E0],"parents":[2147483647,0,0,1,1,2,2,3,3,4,4,5,5,6,6],"right_children":[2,4,6,8,10,12,14,-1,-1,-1,-1,-1,-1,-1,-1],"split_conditions":[3.85E1,3.75E1,4.95E1,3.65E1,1.5E0,4.45E1,7.5E0,8.50424E-1,-4.3378825E0,4.0488153E0,6.4979897E0,-1.4583019E0,2.6815718E-1,3.1408625E0,4.912629E0],"split_indices":[0,0,0,0,3,0,1,0,0,0,0,0,0,0,0],"split_type":[0,0,0,0,0,0,0,0,0,0,0,0,0,0,0],"sum_hessian":[7.304E5,5.55179E5,1.75221E5,5.40591E5,1.4588E4,1.60696E5,1.4525E4,5.26023E5,1.4568E4,3.607E3,1.0981E4,8.7579E4,7.3117E4,1.0155E4,4.37E3],"tree_param":{"num_deleted":"0","num_feature":"8","num_nodes":"15","size_leaf_vector":"0"}},{"base_weights":[2.2747934E0,-5.2480087E0,3.112613E0,-1.51527815E1,-2.7732058E0,1.0169039E1,1.097132E0,-1.5817882E1,-1.34741535E1,1.5978768E1,-9.033482E0,8.064606E0,2.9295969E1,-2.2512081E1,2.5239692E0],"categories":[],"categories_nodes":[],"categories_segments":[],"categories_sizes":[],"default_left":[1,1,1,1,1,1,1,0,0,0,0,0,0,0,0],"id":14,"left_children":[1,3,5,7,9,11,13,-1,-1,-1,-1,-1,-1,-1,-1],"loss_changes":[4.603552E6,1.7941158E6,9.346862E6,1.6123E4,6.875003E6,5.876864E6,1.7220562E7,0E0,0E0,0E0,0E0,0E0,0E0,0E0,0E0],"parents":[2147483647,0,0,1,1,2,2,3,3,4,4,5,5,6,6],"right_children":[2,4,6,8,10,12,14,-1,-1,-1,-1,-1,-1,-1,-1],"split_conditions":[5.5E0,1.5E0,1.55E1,4.5E0,2.5E0,1.45E1,1.75E1,-3.1635764E0,-2.6948307E0,3.1957538E0,-1.8066963E0,1.6129211E0,5.859194E0,-4.502416E0,5.047938E-1],"split_indices":[0,0,0,6,0,0,0,0,0,0,0,0,0,0,0],"split_type":[0,0,0,0,0,0,0,0,0,0,0,0,0,0,0],"sum_hessian":[7.304E5,7.3193E4,6.57207E5,1.4631E4,5.8562E4,1.46009E5,5.11198E5,1.0473E4,4.158E3,1.4657E4,4.3905E4,1.31538E5,1.4471E4,2.9133E4,4.82065E5],"tree_param":{"num_deleted":"0","num_feature":"8","num_nodes":"15","size_leaf_vector":"0"}},{"base_weights":[1.8198326E0,-1.8169206E-1,4.814534E0,3.1954646E0,-1.6313486E0,2.9243028E0,9.505529E0,-3.5036402E0,6.5392523E0,-4.71743E0,2.4906554E0,-3.6630607E0,3.9989018E0,7.2112417E0,1.4876824E1],"categories":[],"categories_nodes":[],"categories_segments":[],"categories_sizes":[],"default_left":[1,1,1,1,1,1,1,0,0,0,0,0,0,0,0],"id":15,"left_children":[1,3,5,7,9,11,13,-1,-1,-1,-1,-1,-1,-1,-1],"loss_changes":[4.3780015E6,2.1433405E6,2.594511E6,2.9453598E6,3.8965708E6,1.4763992E6,1.0355425E6,0E0,0E0,0E0,0E0,0E0,0E0,0E0,0E0],"parents":[2147483647,0,0,1,1,2,2,3,3,4,4,5,5,6,6],"right_children":[2,4,6,8,10,12,14,-1,-1,-1,-1,-1,-1,-1,-1],"split_conditions":[2.0155E3,3.5E0,4.5E0,1.5E0,7.5E0,7.5E0,7.5E0,-7.0072806E-1,1.3078505E0,-9.4348603E-1,4.981311E-1,-7.3261213E-1,7.9978037E-1,1.4422483E0,2.975365E0],"split_indices":[2,1,6,1,1,0,1,0,0,0,0,0,0,0,0],"split_type":[0,0,0,0,0,0,0,0,0,0,0,0,0,0,0],"sum_hessian":[7.304E5,4.37797E5,2.92603E5,1.31485E5,3.06312E5,2.08564E5,8.4039E4,4.3778E4,8.7707E4,1.75167E5,1.31145E5,2.9251E4,1.79313E5,5.8888E4,2.5151E4],"tree_param":{"num_deleted":"0","num_feature":"8","num_nodes":"15","size_leaf_vector":"0"}},{"base_weights":[1.455872E0,-2.9585733E0,2.5587974E0,-2.468448E0,-8.620952E0,1.0569531E0,6.3038397E0,-3.0186808E0,9.608064E0,-1.3681439E1,6.6543856E0,-4.061022E0,1.8937262E0,1.2568547E0,7.9517117E0],"categories":[],"categories_nodes":[],"categories_segments":[],"categories_sizes":[],"default_left":[1,1,1,1,1,1,1,0,0,0,0,0,0,0,0],"id":16,"left_children":[1,3,5,7,9,11,13,-1,-1,-1,-1,-1,-1,-1,-1],"loss_changes":[3.5561862E6,4.0519125E5,3.2869002E6,8.929567E5,8.991748E5,1.7863634E6,1.391172E6,0E0,0E0,0E0,0E0,0E0,0E0,0E0,0E0],"parents":[2147483647,0,0,1,1,2,2,3,3,4,4,5,5,6,6],"right_children":[2,4,6,8,10,12,14,-1,-1,-1,-1,-1,-1,-1,-1],"split_conditions":[2.0135E3,4.65E1,4.5E0,4.45E1,4.95E1,7.5E0,1.5E0,-6.0373616E-1,1.9216127E0,-2.7362878E0,1.3308772E0,-8.1220436E-1,3.7874526E-1,2.5137094E-1,1.5903424E0],"split_indices":[2,0,6,0,0,0,3,0,0,0,0,0,0,0,0],"split_type":[0,0,0,0,0,0,0,0,0,0,0,0,0,0,0],"sum_hessian":[7.304E5,1.46007E5,5.84393E5,1.34377E5,1.163E4,4.1712E5,1.67273E5,1.28522E5,5.855E3,8.736E3,2.894E3,5.8614E4,3.58506E5,4.1173E4,1.261E5],"tree_param":{"num_deleted":"0","num_feature":"8","num_nodes":"15","size_leaf_vector":"0"}},{"base_weights":[1.1646993E0,2.3454766E0,-2.5765269E0,1.807999E0,2.2261427E1,-3.983743E0,1.2991281E1,2.3748338E0,-1.8658092E1,1.6850437E1,2.6306952E1,-1.1723143E0,-1.1474149E1,5.3239694E0,1.4898423E1],"categories":[],"categories_nodes":[],"categories_segments":[],"categories_sizes":[],"default_left":[1,1,1,1,1,1,1,0,0,0,0,0,0,0,0],"id":17,"left_children":[1,3,5,7,9,11,13,-1,-1,-1,-1,-1,-1,-1,-1],"loss_changes":[3.2265925E6,5.942816E6,3.8386875E6,6.271393E6,3.189145E5,3.3840632E6,2.123295E5,0E0,0E0,0E0,0E0,0E0,0E0,0E0,0E0],"parents":[2147483647,0,0,1,1,2,2,3,3,4,4,5,5,6,6],"right_children":[2,4,6,8,10,12,14,-1,-1,-1,-1,-1,-1,-1,-1],"split_conditions":[3.85E1,3.75E1,4.95E1,3.65E1,2.5E0,4.65E1,2.0135E3,4.7496676E-1,-3.7316186E0,3.3700874E0,5.26139E0,-2.3446286E-1,-2.2948298E0,1.064794E0,2.9796846E0],"split_indices":[0,0,0,0,6,0,2,0,0,0,0,0,0,0,0],"split_type":[0,0,0,0,0,0,0,0,0,0,0,0,0,0,0],"sum_hessian":[7.304E5,5.55179E5,1.75221E5,5.40591E5,1.4588E4,1.60696E5,1.4525E4,5.26023E5,1.4568E4,6.243E3,8.345E3,1.16842E5,4.3854E4,2.894E3,1.1631E4],"tree_param":{"num_deleted":"0","num_feature":"8","num_nodes":"15","size_leaf_vector":"0"}},{"base_weights":[9.317681E-1,4.047251E0,-4.05003E-1,-2.6168132E0,7.3777976E0,-3.5429773E0,3.7923312E0,-2.0842519E0,-8.36422E0,1.1180106E1,3.5700274E0,1.059002E0,-5.0783606E0,8.633306E0,1.379382E0],"categories":[],"categories_nodes":[],"categories_segments":[],"categories_sizes":[],"default_left":[1,1,1,1,1,1,1,0,0,0,0,0,0,0,0],"id":18,"left_children":[1,3,5,7,9,11,13,-1,-1,-1,-1,-1,-1,-1,-1],"loss_changes":[3.041894E6,4.8673775E6,6.7318025E6,2.2366612E5,2.117009E6,2.0664558E6,2.5539858E6,0E0,0E0,0E0,0E0,0E0,0E0,0E0,0E0],"parents":[2147483647,0,0,1,1,2,2,3,3,4,4,5,5,6,6],"right_children":[2,4,6,8,10,12,14,-1,-1,-1,-1,-1,-1,-1,-1],"split_conditions":[3.5E0,1.5E0,7.5E0,1.15E1,2.5E0,4.5E0,8.5E0,-4.168504E-1,-1.6728439E0,2.2360213E0,7.140055E-1,2.1180041E-1,-1.0156721E0,1.7266611E0,2.758764E-1],"split_indices":[1,1,1,4,1,1,1,0,0,0,0,0,0,0,0],"split_type":[0,0,0,0,0,0,0,0,0,0,0,0,0,0,0],"sum_hessian":[7.304E5,2.19299E5,5.11101E5,7.3078E4,1.46221E5,2.92457E5,2.18644E5,6.6882E4,6.196E3,7.3162E4,7.3059E4,7.3164E4,2.19293E5,7.2729E4,1.45915E5],"tree_param":{"num_deleted":"0","num_feature":"8","num_nodes":"15","size_leaf_vector":"0"}},{"base_weights":[7.454171E-1,1.3433586E0,-5.702401E0,-1.8308471E0,3.125566E0,-8.359734E0,-5.2638497E0,-4.806502E0,-7.9509073E-1,6.1041718E0,6.856336E-1,-9.310331E0,-6.3050766E0,-5.791524E0,-3.19492E0],"categories":[],"categories_nodes":[],"categories_segments":[],"categories_sizes":[],"default_left":[1,1,1,1,1,1,1,0,0,0,0,0,0,0,0],"id":19,"left_children":[1,3,5,7,9,11,13,-1,-1,-1,-1,-1,-1,-1,-1],"loss_changes":[2.816009E6,3.781297E6,7.2193125E4,7.407585E5,3.111036E6,1.7088062E4,5.806975E4,0E0,0E0,0E0,0E0,0E0,0E0,0E0,0E0],"parents":[2147483647,0,0,1,1,2,2,3,3,4,4,5,5,6,6],"right_children":[2,4,6,8,10,12,14,-1,-1,-1,-1,-1,-1,-1,-1],"split_conditions":[1.15E1,4.5E0,5E-1,1.5E0,3.15E1,3.45E1,2.0165E3,-9.613004E-1,-1.5901814E-1,1.2208344E0,1.3712673E-1,-1.8620663E0,-1.2610153E0,-1.1583048E0,-6.38984E-1],"split_indices":[4,4,6,4,5,0,2,0,0,0,0,0,0,0,0],"split_type":[0,0,0,0,0,0,0,0,0,0,0,0,0,0,0],"sum_hessian":[7.304E5,6.68415E5,6.1985E4,2.40346E5,4.28069E5,8.778E3,5.3207E4,6.2057E4,1.78289E5,1.92756E5,2.35313E5,5.999E3,2.779E3,4.2393E4,1.0814E4],"tree_param":{"num_deleted":"0","num_feature":"8","num_nodes":"15","size_leaf_vector":"0"}},{"base_weights":[5.9632814E-1,-1.6051307E0,2.246125E0,-3.8885257E0,-4.6871546E-1,-3.1995928E0,3.1335313E0,-6.864985E0,-3.1468225E0,-2.498971E0,9.010174E-1,-1.3121646E1,-1.5499411E0,1.2254715E1,1.0507847E0],"categories":[],"categories_nodes":[],"categories_segments":[],"categories_sizes":[],"default_left":[1,1,1,1,1,1,1,0,0,0,0,0,0,0,0],"id":20,"left_children":[1,3,5,7,9,11,13,-1,-1,-1,-1,-1,-1,-1,-1],"loss_changes":[2.6527905E6,8.119091E5,2.0176682E6,2.2951638E5,5.809783E5,9.575529E5,6.8201595E6,0E0,0E0,0E0,0E0,0E0,0E0,0E0,0E0],"parents":[2147483647,0,0,1,1,2,2,3,3,4,4,5,5,6,6],"right_children":[2,4,6,8,10,12,14,-1,-1,-1,-1,-1,-1,-1,-1],"split_conditions":[2.5E0,5E-1,7.5E0,2.0135E3,2.0145E3,1.5E0,1.55E1,-1.372997E0,-6.293645E-1,-4.9979421E-1,1.8020348E-1,-2.6243293E0,-3.0998823E-1,2.450943E0,2.1015695E-1],"split_indices":[6,6,0,2,2,0,0,0,0,0,0,0,0,0,0],"split_type":[0,0,0,0,0,0,0,0,0,0,0,0,0,0,0],"sum_hessian":[7.304E5,3.12888E5,4.17512E5,1.03973E5,2.08915E5,5.8502E4,3.5901E5,2.0739E4,8.3234E4,8.4164E4,1.24751E5,8.339E3,5.0163E4,6.6737E4,2.92273E5],"tree_param":{"num_deleted":"0","num_feature":"8","num_nodes":"15","size_leaf_vector":"0"}},{"base_weights":[4.7705925E-1,-2.1460868E-1,4.6241474E0,-1.52727E0,1.7507552E0,5.35815E0,-3.3558478E0,-4.8624063E0,-9.8235357E-1,3.610524E-1,5.0102553E0,1.1203111E0,6.940878E0,-5.7169075E0,-2.6519473E0],"categories":[],"categories_nodes":[],"categories_segments":[],"categories_sizes":[],"default_left":[1,1,1,1,1,1,1,0,0,0,0,0,0,0,0],"id":21,"left_children":[1,3,5,7,9,11,13,-1,-1,-1,-1,-1,-1,-1,-1],"loss_changes":[2.095089E6,1.6149829E6,6.11559E5,6.8209244E5,1.1354942E6,6.41295E5,1.4601695E4,0E0,0E0,0E0,0E0,0E0,0E0,0E0,0E0],"parents":[2147483647,0,0,1,1,2,2,3,3,4,4,5,5,6,6],"right_children":[2,4,6,8,10,12,14,-1,-1,-1,-1,-1,-1,-1,-1],"split_conditions":[5.5E0,2.0155E3,1.15E1,7.5E0,7.5E0,1.5E0,2.0135E3,-9.7248125E-1,-1.9647072E-1,7.221048E-2,1.0020511E0,2.2406223E-1,1.3881756E0,-1.1433815E0,-5.303895E-1],"split_indices":[6,2,4,0,1,3,2,0,0,0,0,0,0,0,0],"split_type":[0,0,0,0,0,0,0,0,0,0,0,0,0,0,0],"sum_hessian":[7.304E5,6.25995E5,1.04405E5,3.7532E5,2.50675E5,9.5611E4,8.794E3,5.2709E4,3.22611E5,1.75746E5,7.4929E4,2.5999E4,6.9612E4,2.018E3,6.776E3],"tree_param":{"num_deleted":"0","num_feature":"8","num_nodes":"15","size_leaf_vector":"0"}},{"base_weights":[3.8164714E-1,2.970263E0,-7.290584E-1,-2.3621864E0,5.6353E0,-3.1042752E0,2.4480183E0,-3.2034197E-1,-3.2359626E0,-3.7500632E0,6.6810637E0,5.737869E-1,-4.3314056E0,6.3236103E0,5.162612E-1],"categories":[],"categories_nodes":[],"categories_segments":[],"categories_sizes":[],"default_left":[1,1,1,1,1,1,1,0,0,0,0,0,0,0,0],"id":22,"left_children":[1,3,5,7,9,11,13,-1,-1,-1,-1,-1,-1,-1,-1],"loss_changes":[2.1000438E6,3.1165245E6,3.8569095E6,1.3038031E5,1.435175E6,1.3200005E6,1.6369266E6,0E0,0E0,0E0,0E0,0E0,0E0,0E0,0E0],"parents":[2147483647,0,0,1,1,2,2,3,3,4,4,5,5,6,6],"right_children":[2,4,6,8,10,12,14,-1,-1,-1,-1,-1,-1,-1,-1],"split_conditions":[3.5E0,1.5E0,7.5E0,1.55E1,5.5E0,4.5E0,8.5E0,-6.40684E-2,-6.4719254E-1,-7.5001264E-1,1.3362128E0,1.1475738E-1,-8.6628115E-1,1.2647221E0,1.0325225E-1],"split_indices":[1,1,1,0,0,1,1,0,0,0,0,0,0,0,0],"split_type":[0,0,0,0,0,0,0,0,0,0,0,0,0,0,0],"sum_hessian":[7.304E5,2.19299E5,5.11101E5,7.3078E4,1.46221E5,2.92457E5,2.18644E5,2.1901E4,5.1177E4,1.4659E4,1.31562E5,7.3164E4,2.19293E5,7.2729E4,1.45915E5],"tree_param":{"num_deleted":"0","num_feature":"8","num_nodes":"15","size_leaf_vector":"0"}},{"base_weights":[3.0531847E-1,1.2349721E0,-2.640233E0,3.1836227E-1,9.041225E0,-7.495337E0,2.211411E0,1.199254E0,-2.8412737E1,1.7191637E1,8.832365E-1,-5.832786E0,-1.5799271E1,1.637241E1,-4.8870764E0],"categories":[],"categories_nodes":[],"categories_segments":[],"categories_sizes":[],"default_left":[1,1,1,1,1,1,1,0,0,0,0,0,0,0,0],"id":23,"left_children":[1,3,5,7,9,11,13,-1,-1,-1,-1,-1,-1,-1,-1],"loss_changes":[2.0000915E6,3.9724702E6,4.1274122E6,1.2574602E7,3.8790015E6,1.209012E6,8.810101E6,0E0,0E0,0E0,0E0,0E0,0E0,0E0,0E0],"parents":[2147483647,0,0,1,1,2,2,3,3,4,4,5,5,6,6],"right_children":[2,4,6,8,10,12,14,-1,-1,-1,-1,-1,-1,-1,-1],"split_conditions":[3.85E1,3.45E1,4.45E1,3.35E1,3.65E1,4.35E1,4.65E1,2.398508E-1,-5.6825476E0,3.4383276E0,1.766473E-1,-1.1665572E0,-3.1598542E0,3.274482E0,-9.7741526E-1],"split_indices":[0,0,0,0,0,0,0,0,0,0,0,0,0,0,0],"split_type":[0,0,0,0,0,0,0,0,0,0,0,0,0,0,0],"sum_hessian":[7.304E5,5.55179E5,1.75221E5,4.96841E5,5.8338E4,8.7579E4,8.7642E4,4.82062E5,1.4779E4,2.9182E4,2.9156E4,7.2971E4,1.4608E4,2.9263E4,5.8379E4],"tree_param":{"num_deleted":"0","num_feature":"8","num_nodes":"15","size_leaf_vector":"0"}},{"base_weights":[2.4425E-1,-1.0715526E1,4.682929E-1,-9.991689E0,-1.2401982E1,1.2871815E1,2.0897481E-1,-1.1949242E1,-7.363374E0,-9.911161E0,-1.2931562E1,5.7990646E0,1.5200222E1,-7.141699E0,7.000499E-1],"categories":[],"categories_nodes":[],"categories_segments":[],"categories_sizes":[],"default_left":[1,1,1,1,1,1,1,0,0,0,0,0,0,0,0],"id":24,"left_children":[1,3,5,7,9,11,13,-1,-1,-1,-1,-1,-1,-1,-1],"loss_changes":[1.7934754E6,1.773775E4,2.3022412E6,5.2612875E4,5.662625E3,2.413035E5,2.5308355E6,0E0,0E0,0E0,0E0,0E0,0E0,0E0,0E0],"parents":[2147483647,0,0,1,1,2,2,3,3,4,4,5,5,6,6],"right_children":[2,4,6,8,10,12,14,-1,-1,-1,-1,-1,-1,-1,-1],"split_conditions":[1.5E0,7.5E0,2.5E0,4.5E0,9.5E0,1.5E0,5.5E0,-2.3898485E0,-1.4726748E0,-1.9822323E0,-2.5863125E0,1.1598129E0,3.0400445E0,-1.4283398E0,1.4000998E-1],"split_indices":[0,1,0,1,5,3,0,0,0,0,0,0,0,0,0],"split_type":[0,0,0,0,0,0,0,0,0,0,0,0,0,0,0],"sum_hessian":[7.304E5,1.4631E4,7.15769E5,1.0242E4,4.389E3,1.4657E4,7.01112E5,5.868E3,4.374E3,7.73E2,3.616E3,3.631E3,1.1026E4,4.3905E4,6.57207E5],"tree_param":{"num_deleted":"0","num_feature":"8","num_nodes":"15","size_leaf_vector":"0"}},{"base_weights":[1.9539253E-1,-2.8582149E0,9.583212E-1,-3.0153122E0,4.908856E0,-2.9621794E0,1.717348E0,-2.8232992E0,-1.2188301E1,7.9337626E0,2.8905876E0,-3.5183704E0,3.5077527E-1,3.1481326E0,-1.6003032E0],"categories":[],"categories_nodes":[],"categories_segments":[],"categories_sizes":[],"default_left":[1,1,1,1,1,1,1,0,0,0,0,0,0,0,0],"id":25,"left_children":[1,3,5,7,9,11,13,-1,-1,-1,-1,-1,-1,-1,-1],"loss_changes":[1.7016069E6,1.781715E5,1.7390242E6,2.52037E5,1.7651258E4,1.7466462E5,2.3240838E6,0E0,0E0,0E0,0E0,0E0,0E0,0E0,0E0],"parents":[2147483647,0,0,1,1,2,2,3,3,4,4,5,5,6,6],"right_children":[2,4,6,8,10,12,14,-1,-1,-1,-1,-1,-1,-1,-1],"split_conditions":[2.0135E3,4.95E1,2.5E0,4.85E1,4.5E0,5.5E0,3.5E0,-5.6465983E-1,-2.4376602E0,1.5867525E0,5.7811755E-1,-7.036741E-1,7.0155054E-2,6.296265E-1,-3.2006064E-1],"split_indices":[2,0,4,0,1,6,3,0,0,0,0,0,0,0,0],"split_type":[0,0,0,0,0,0,0,0,0,0,0,0,0,0,0],"sum_hessian":[7.304E5,1.46007E5,5.84393E5,1.43113E5,2.894E3,9.4789E4,4.89604E5,1.4018E5,2.933E3,1.157E3,1.737E3,8.1163E4,1.3626E4,3.42078E5,1.47526E5],"tree_param":{"num_deleted":"0","num_feature":"8","num_nodes":"15","size_leaf_vector":"0"}},{"base_weights":[1.563126E-1,2.3872602E0,-8.0032176E-1,-2.1786191E0,9.2689E0,-2.029155E1,3.7764603E-1,-8.799089E-1,-1.256629E1,7.1764235E0,1.981725E1,-2.3944084E1,-1.6631348E1,2.9616299E1,-5.3941137E-1],"categories":[],"categories_nodes":[],"categories_segments":[],"categories_sizes":[],"default_left":[1,1,1,1,1,1,1,0,0,0,0,0,0,0,0],"id":26,"left_children":[1,3,5,7,9,11,13,-1,-1,-1,-1,-1,-1,-1,-1],"loss_changes":[1.5588245E6,6.88754E6,1.1737157E7,1.7776959E6,1.9296275E6,3.89094E5,1.2925903E7,0E0,0E0,0E0,0E0,0E0,0E0,0E0,0E0],"parents":[2147483647,0,0,1,1,2,2,3,3,4,4,5,5,6,6],"right_children":[2,4,6,8,10,12,14,-1,-1,-1,-1,-1,-1,-1,-1],"split_conditions":[1.55E1,9.5E0,1.75E1,8.5E0,1.45E1,1.65E1,1.85E1,-1.7598179E-1,-2.513258E0,1.4352847E0,3.96345E0,-4.788817E0,-3.3262696E0,5.9232597E0,-1.07882276E-1],"split_indices":[0,0,0,0,0,0,0,0,0,0,0,0,0,0,0],"split_type":[0,0,0,0,0,0,0,0,0,0,0,0,0,0,0],"sum_hessian":[7.304E5,2.19202E5,5.11198E5,1.31773E5,8.7429E4,2.9133E4,4.82065E5,1.1713E5,1.4643E4,7.2958E4,1.4471E4,1.4579E4,1.4554E4,1.4659E4,4.67406E5],"tree_param":{"num_deleted":"0","num_feature":"8","num_nodes":"15","size_leaf_vector":"0"}},{"base_weights":[1.2505095E-1,-8.35632E-2,1.0406046E1,4.8033178E-1,-8.724533E0,4.035678E0,1.1990624E1,-9.0745606E-2,1.3023547E1,-2.1018772E1,-2.5712266E0,-1.3372568E0,4.9101257E0,4.3157835E0,1.3509339E1],"categories":[],"categories_nodes":[],"categories_segments":[],"categories_sizes":[],"default_left":[1,1,1,1,1,1,1,0,0,0,0,0,0,0,0],"id":27,"left_children":[1,3,5,7,9,11,13,-1,-1,-1,-1,-1,-1,-1,-1],"loss_changes":[1.5665365E6,3.4881815E6,1.4658212E5,4.8137935E6,3.3175868E6,1.3608293E4,1.3552312E5,0E0,0E0,0E0,0E0,0E0,0E0,0E0,0E0],"parents":[2147483647,0,0,1,1,2,2,3,3,4,4,5,5,6,6],"right_children":[2,4,6,8,10,12,14,-1,-1,-1,-1,-1,-1,-1,-1],"split_conditions":[4.95E1,4.65E1,2.0135E3,4.45E1,4.75E1,5E-1,2.5E0,-1.814912E-2,2.6047094E0,-4.2037544E0,-5.1424533E-1,-2.6745138E-1,9.8202515E-1,8.6315674E-1,2.7018678E0],"split_indices":[0,0,2,0,0,6,4,0,0,0,0,0,0,0,0],"split_type":[0,0,0,0,0,0,0,0,0,0,0,0,0,0,0],"sum_hessian":[7.304E5,7.15875E5,1.4525E4,6.72021E5,4.3854E4,2.894E3,1.1631E4,6.42758E5,2.9263E4,1.4627E4,2.9227E4,4.05E2,2.489E3,1.922E3,9.709E3],"tree_param":{"num_deleted":"0","num_feature":"8","num_nodes":"15","size_leaf_vector":"0"}},{"base_weights":[1.0004463E-1,-3.3328443E0,6.698325E-1,-2.653971E0,-4.686234E0,1.4921951E0,-2.24708E0,-3.9800675E0,-5.094827E-1,-5.535703E0,-3.679125E0,1.5623472E-2,4.81267E0,-1.4159584E1,3.9655897E-1],"categories":[],"categories_nodes":[],"categories_segments":[],"categories_sizes":[],"default_left":[1,1,1,1,1,1,1,0,0,0,0,0,0,0,0],"id":28,"left_children":[1,3,5,7,9,11,13,-1,-1,-1,-1,-1,-1,-1,-1],"loss_changes":[1.4286802E6,9.5516875E4,1.5026536E6,1.9691397E5,2.969225E4,2.3958652E6,4.3386445E6,0E0,0E0,0E0,0E0,0E0,0E0,0E0,0E0],"parents":[2147483647,0,0,1,1,2,2,3,3,4,4,5,5,6,6],"right_children":[2,4,6,8,10,12,14,-1,-1,-1,-1,-1,-1,-1,-1],"split_conditions":[5E-1,8.5E0,3.95E1,5.5E0,2.75E1,2.75E1,4.15E1,-7.9601353E-1,-1.0189654E-1,-1.1071407E0,-7.35825E-1,3.1246943E-3,9.6253407E-1,-2.8319168E0,7.9311796E-2],"split_indices":[6,4,0,4,0,0,0,0,0,0,0,0,0,0,0],"split_type":[0,0,0,0,0,0,0,0,0,0,0,0,0,0,0],"sum_hessian":[7.304E5,1.03973E5,6.26427E5,6.9243E4,3.473E4,4.8866E5,1.37767E5,4.2785E4,2.6458E4,1.8837E4,1.5893E4,3.38247E5,1.50413E5,2.502E4,1.12747E5],"tree_param":{"num_deleted":"0","num_feature":"8","num_nodes":"15","size_leaf_vector":"0"}},{"base_weights":[8.002897E-2,4.9598113E-1,-4.405325E0,-1.3607367E0,2.0277061E0,-6.8803227E-1,-4.729344E0,-1.8345785E0,1.4797348E0,5.9376845E0,7.3117025E-2,-4.6652174E0,6.5357023E-1,-6.0997396E0,-3.3533394E0],"categories":[],"categories_nodes":[],"categories_segments":[],"categories_sizes":[],"default_left":[1,1,1,1,1,1,1,0,0,0,0,0,0,0,0],"id":29,"left_children":[1,3,5,7,9,11,13,-1,-1,-1,-1,-1,-1,-1,-1],"loss_changes":[1.362706E6,1.9009655E6,7.465725E4,4.0668212E5,2.7991288E6,2.6527318E4,1.07493E5,0E0,0E0,0E0,0E0,0E0,0E0,0E0,0E0],"parents":[2147483647,0,0,1,1,2,2,3,3,4,4,5,5,6,6],"right_children":[2,4,6,8,10,12,14,-1,-1,-1,-1,-1,-1,-1,-1],"split_conditions":[1.15E1,5.5E0,4.5E0,5.5E0,7.5E0,1.5E0,2.75E1,-3.669157E-1,2.9594696E-1,1.187537E0,1.4623405E-2,-9.330435E-1,1.3071404E-1,-1.2199479E0,-6.706679E-1],"split_indices":[4,4,0,6,4,0,0,0,0,0,0,0,0,0,0],"split_type":[0,0,0,0,0,0,0,0,0,0,0,0,0,0,0],"sum_hessian":[7.304E5,6.68415E5,6.1985E4,3.02153E5,3.66262E5,4.97E3,5.7015E4,2.58955E5,4.3198E4,1.2207E5,2.44192E5,1.253E3,3.717E3,2.8564E4,2.8451E4],"tree_param":{"num_deleted":"0","num_feature":"8","num_nodes":"15","size_leaf_vector":"0"}},{"base_weights":[6.402117E-2,2.1392164E0,-8.263889E-1,-2.1261766E0,4.2709646E0,-2.7361536E0,1.7281024E0,-2.2895198E0,5.7720847E0,7.303983E0,1.233612E0,-1.6647233E0,-5.9484587E0,4.828971E0,1.825018E-1],"categories":[],"categories_nodes":[],"categories_segments":[],"categories_sizes":[],"default_left":[1,1,1,1,1,1,1,0,0,0,0,0,0,0,0],"id":30,"left_children":[1,3,5,7,9,11,13,-1,-1,-1,-1,-1,-1,-1,-1],"loss_changes":[1.3496181E6,1.9940482E6,2.4934042E6,9.429434E4,1.3470385E6,1.00656075E6,1.0478998E6,0E0,0E0,0E0,0E0,0E0,0E0,0E0,0E0],"parents":[2147483647,0,0,1,1,2,2,3,3,4,4,5,5,6,6],"right_children":[2,4,6,8,10,12,14,-1,-1,-1,-1,-1,-1,-1,-1],"split_conditions":[3.5E0,1.5E0,7.5E0,4.95E1,2.5E0,6.5E0,8.5E0,-4.5790395E-1,1.1544169E0,1.4607967E0,2.4672239E-1,-3.3294466E-1,-1.1896918E0,9.657942E-1,3.650036E-2],"split_indices":[1,1,1,0,1,1,1,0,0,0,0,0,0,0,0],"split_type":[0,0,0,0,0,0,0,0,0,0,0,0,0,0,0],"sum_hessian":[7.304E5,2.19299E5,5.11101E5,7.3078E4,1.46221E5,2.92457E5,2.18644E5,7.1598E4,1.48E3,7.3162E4,7.3059E4,2.1931E5,7.3147E4,7.2729E4,1.45915E5],"tree_param":{"num_deleted":"0","num_feature":"8","num_nodes":"15","size_leaf_vector":"0"}},{"base_weights":[5.121945E-2,-6.0585546E-1,2.678898E0,4.276602E-1,-2.0339105E0,5.3080404E-1,4.285972E0,-1.1718671E0,2.2044615E1,-1.5164365E1,-1.3789749E0,2.930515E0,-5.007677E-1,-2.1738098E0,5.000712E0],"categories":[],"categories_nodes":[],"categories_segments":[],"categories_sizes":[],"default_left":[1,1,1,1,1,1,1,0,0,0,0,0,0,0,0],"id":31,"left_children":[1,3,5,7,9,11,13,-1,-1,-1,-1,-1,-1,-1,-1],"loss_changes":[1.2610988E6,8.6237044E5,5.0438388E5,1.1720664E7,2.1096505E6,1.5479284E5,3.8590038E5,0E0,0E0,0E0,0E0,0E0,0E0,0E0,0E0],"parents":[2147483647,0,0,1,1,2,2,3,3,4,4,5,5,6,6],"right_children":[2,4,6,8,10,12,14,-1,-1,-1,-1,-1,-1,-1,-1],"split_conditions":[2.0165E3,2.95E1,2.5E0,2.75E1,3.05E1,1.55E1,5.5E0,-2.3437344E-1,4.408923E0,-3.032873E0,-2.7579498E-1,5.86103E-1,-1.0015354E-1,-4.3476197E-1,1.0001425E0],"split_indices":[2,0,6,0,0,0,0,0,0,0,0,0,0,0,0],"split_type":[0,0,0,0,0,0,0,0,0,0,0,0,0,0,0],"sum_hessian":[7.304E5,5.84293E5,1.46107E5,3.38972E5,2.45321E5,6.2529E4,8.3578E4,3.15619E5,2.3353E4,1.1654E4,2.33667E5,1.8798E4,4.3731E4,8.326E3,7.5252E4],"tree_param":{"num_deleted":"0","num_feature":"8","num_nodes":"15","size_leaf_vector":"0"}},{"base_weights":[4.0978733E-2,2.0866823E0,-8.3622247E-1,-1.5457368E0,7.56142E0,-1.6035185E1,8.233924E-2,-5.0144786E-1,-9.898445E0,5.8871107E0,1.6001743E1,-1.895994E1,-1.3104303E1,2.3897661E1,-6.646173E-1],"categories":[],"categories_nodes":[],"categories_segments":[],"categories_sizes":[],"default_left":[1,1,1,1,1,1,1,0,0,0,0,0,0,0,0],"id":32,"left_children":[1,3,5,7,9,11,13,-1,-1,-1,-1,-1,-1,-1,-1],"loss_changes":[1.3107018E6,4.3592015E6,7.1369455E6,1.1494125E6,1.235441E6,2.49491E5,8.575493E6,0E0,0E0,0E0,0E0,0E0,0E0,0E0,0E0],"parents":[2147483647,0,0,1,1,2,2,3,3,4,4,5,5,6,6],"right_children":[2,4,6,8,10,12,14,-1,-1,-1,-1,-1,-1,-1,-1],"split_conditions":[1.55E1,9.5E0,1.75E1,8.5E0,1.45E1,1.65E1,1.85E1,-1.00289576E-1,-1.979689E0,1.1774222E0,3.2003486E0,-3.7919881E0,-2.6208608E0,4.7795324E0,-1.3292347E-1],"split_indices":[0,0,0,0,0,0,0,0,0,0,0,0,0,0,0],"split_type":[0,0,0,0,0,0,0,0,0,0,0,0,0,0,0],"sum_hessian":[7.304E5,2.19202E5,5.11198E5,1.31773E5,8.7429E4,2.9133E4,4.82065E5,1.1713E5,1.4643E4,7.2958E4,1.4471E4,1.4579E4,1.4554E4,1.4659E4,4.67406E5],"tree_param":{"num_deleted":"0","num_feature":"8","num_nodes":"15","size_leaf_vector":"0"}},{"base_weights":[3.2783967E-2,-1.364743E-1,8.374233E0,1.2412669E-1,-1.2609346E1,1.6109201E0,9.481636E0,-6.411594E-2,8.990671E0,-8.758092E0,-1.3572563E1,4.1631365E0,-1.1486984E-1,1.2844784E1,7.1923876E0],"categories":[],"categories_nodes":[],"categories_segments":[],"categories_sizes":[],"default_left":[1,1,1,1,1,1,1,0,0,0,0,0,0,0,0],"id":33,"left_children":[1,3,5,7,9,11,13,-1,-1,-1,-1,-1,-1,-1,-1],"loss_changes":[1.0312246E6,2.3269155E6,1.0878025E5,1.17039E6,5.423025E4,9.007863E3,9.60075E4,0E0,0E0,0E0,0E0,0E0,0E0,0E0,0E0],"parents":[2147483647,0,0,1,1,2,2,3,3,4,4,5,5,6,6],"right_children":[2,4,6,8,10,12,14,-1,-1,-1,-1,-1,-1,-1,-1],"split_conditions":[4.95E1,4.85E1,5E-1,4.75E1,2.0135E3,4.5E0,4.5E0,-1.2823189E-2,1.7981342E0,-1.7516184E0,-2.7145126E0,8.326273E-1,-2.2973968E-2,2.5689569E0,1.4384775E0],"split_indices":[0,0,6,0,2,1,1,0,0,0,0,0,0,0,0],"split_type":[0,0,0,0,0,0,0,0,0,0,0,0,0,0,0],"sum_hessian":[7.304E5,7.15875E5,1.4525E4,7.01225E5,1.465E4,2.044E3,1.2481E4,6.86648E5,1.4577E4,2.933E3,1.1717E4,8.24E2,1.22E3,5.053E3,7.428E3],"tree_param":{"num_deleted":"0","num_feature":"8","num_nodes":"15","size_leaf_vector":"0"}},{"base_weights":[2.6231604E-2,-1.4321474E0,9.980029E-1,-3.6032763E0,-1.0722381E0,-8.9222355E0,1.1998988E0,-4.4595504E0,-2.6003122E0,-1.9873618E0,-1.5714964E-1,-5.750046E0,-9.5407095E0,3.800949E0,1.5830114E-1],"categories":[],"categories_nodes":[],"categories_segments":[],"categories_sizes":[],"default_left":[1,1,1,1,1,1,1,0,0,0,0,0,0,0,0],"id":34,"left_children":[1,3,5,7,9,11,13,-1,-1,-1,-1,-1,-1,-1,-1],"loss_changes":[1.0351337E6,2.282255E5,8.7791825E5,3.5656625E4,2.0980919E5,1.7098188E4,1.1638544E6,0E0,0E0,0E0,0E0,0E0,0E0,0E0,0E0],"parents":[2147483647,0,0,1,1,2,2,3,3,4,4,5,5,6,6],"right_children":[2,4,6,8,10,12,14,-1,-1,-1,-1,-1,-1,-1,-1],"split_conditions":[2.0145E3,5E-1,1.5E0,2.75E1,2.0135E3,2.5E0,1.55E1,-8.919101E-1,-5.2006245E-1,-3.9747235E-1,-3.1429928E-2,-1.1500092E0,-1.908142E0,7.6018983E-1,3.166023E-2],"split_indices":[2,6,0,0,2,4,0,0,0,0,0,0,0,0,0],"split_type":[0,0,0,0,0,0,0,0,0,0,0,0,0,0,0],"sum_hessian":[7.304E5,2.92073E5,4.38327E5,4.1531E4,2.50542E5,8.742E3,4.29585E5,2.2402E4,1.9129E4,1.25268E5,1.25274E5,1.428E3,7.314E3,1.22837E5,3.06748E5],"tree_param":{"num_deleted":"0","num_feature":"8","num_nodes":"15","size_leaf_vector":"0"}},{"base_weights":[2.0978775E-2,-4.4355166E-1,2.8062036E0,-1.2859814E-1,-3.8351614E0,1.6246583E0,5.5721393E0,-1.8469594E0,8.3606905E-1,-2.977965E-1,-4.1428027E0,4.856843E0,-2.683633E0,9.005647E0,3.862031E0],"categories":[],"categories_nodes":[],"categories_segments":[],"categories_sizes":[],"default_left":[1,1,1,1,1,1,1,0,0,0,0,0,0,0,0],"id":35,"left_children":[1,3,5,7,9,11,13,-1,-1,-1,-1,-1,-1,-1,-1],"loss_changes":[9.450099E5,6.6868806E5,3.4119794E5,9.495098E5,5.7884375E4,1.0187384E6,1.8345488E5,0E0,0E0,0E0,0E0,0E0,0E0,0E0,0E0],"parents":[2147483647,0,0,1,1,2,2,3,3,4,4,5,5,6,6],"right_children":[2,4,6,8,10,12,14,-1,-1,-1,-1,-1,-1,-1,-1],"split_conditions":[5.5E0,1.15E1,7.5E0,4.5E0,4.5E0,4.5E0,8.5E0,-3.693919E-1,1.6721381E-1,-5.9559297E-2,-8.2856053E-1,9.713686E-1,-5.3672665E-1,1.8011293E0,7.724062E-1],"split_indices":[6,4,1,4,0,1,1,0,0,0,0,0,0,0,0],"split_type":[0,0,0,0,0,0,0,0,0,0,0,0,0,0,0],"sum_hessian":[7.304E5,6.25995E5,1.04405E5,5.72804E5,5.3191E4,7.3156E4,3.1249E4,2.05948E5,3.66856E5,4.256E3,4.8935E4,4.1798E4,3.1358E4,1.0388E4,2.0861E4],"tree_param":{"num_deleted":"0","num_feature":"8","num_nodes":"15","size_leaf_vector":"0"}},{"base_weights":[1.6785998E-2,1.3129385E0,-8.4881127E-1,-1.8029729E0,2.3508642E0,-2.9687712E0,1.2774453E0,-2.8453457E0,-1.05004E0,5.7323985E0,6.5890133E-1,-2.13776E0,-4.6290607E0,3.6620083E0,8.888105E-2],"categories":[],"categories_nodes":[],"categories_segments":[],"categories_sizes":[],"default_left":[1,1,1,1,1,1,1,0,0,0,0,0,0,0,0],"id":36,"left_children":[1,3,5,7,9,11,13,-1,-1,-1,-1,-1,-1,-1,-1],"loss_changes":[8.1947156E5,9.4585756E5,1.974044E6,5.7352094E4,1.2551979E6,3.0255412E5,6.1968475E5,0E0,0E0,0E0,0E0,0E0,0E0,0E0,0E0],"parents":[2147483647,0,0,1,1,2,2,3,3,4,4,5,5,6,6],"right_children":[2,4,6,8,10,12,14,-1,-1,-1,-1,-1,-1,-1,-1],"split_conditions":[4.5E0,1.5E0,7.5E0,2.15E1,2.5E0,6.5E0,8.5E0,-5.6906915E-1,-2.1000801E-1,1.1464797E0,1.3178027E-1,-4.2755198E-1,-9.258122E-1,7.3240167E-1,1.7776212E-2],"split_indices":[1,1,1,0,1,1,1,0,0,0,0,0,0,0,0],"split_type":[0,0,0,0,0,0,0,0,0,0,0,0,0,0,0],"sum_hessian":[7.304E5,2.92463E5,4.37937E5,7.3078E4,2.19385E5,2.19293E5,2.18644E5,3.0647E4,4.2431E4,7.3162E4,1.46223E5,1.46146E5,7.3147E4,7.2729E4,1.45915E5],"tree_param":{"num_deleted":"0","num_feature":"8","num_nodes":"15","size_leaf_vector":"0"}},{"base_weights":[1.342855E-2,-1.1828102E0,9.0990347E-1,-1.3048742E0,4.832646E0,1.6319448E0,-1.3754101E0,-1.0225298E0,-5.6236925E0,1.5554082E0,6.4352107E0,1.1615045E0,1.9045084E1,-7.954837E0,8.1964695E-1],"categories":[],"categories_nodes":[],"categories_segments":[],"categories_sizes":[],"default_left":[1,1,1,1,1,1,1,0,0,0,0,0,0,0,0],"id":37,"left_children":[1,3,5,7,9,11,13,-1,-1,-1,-1,-1,-1,-1,-1],"loss_changes":[7.832817E5,2.2975156E5,6.889366E5,3.7394212E5,3.2673094E4,2.5990195E6,1.4477232E6,0E0,0E0,0E0,0E0,0E0,0E0,0E0,0E0],"parents":[2147483647,0,0,1,1,2,2,3,3,4,4,5,5,6,6],"right_children":[2,4,6,8,10,12,14,-1,-1,-1,-1,-1,-1,-1,-1],"split_conditions":[2.5E0,4.95E1,3.85E1,4.65E1,5E-1,3.75E1,4.15E1,-2.0450597E-1,-1.1247386E0,3.1108165E-1,1.2870421E0,2.323009E-1,3.809017E0,-1.5909674E0,1.6392939E-1],"split_indices":[6,0,0,0,6,0,0,0,0,0,0,0,0,0,0],"split_type":[0,0,0,0,0,0,0,0,0,0,0,0,0,0,0],"sum_hessian":[7.304E5,3.12888E5,4.17512E5,3.06666E5,6.222E3,3.17271E5,1.00241E5,2.87849E5,1.8817E4,2.044E3,4.178E3,3.08926E5,8.345E3,2.5076E4,7.5165E4],"tree_param":{"num_deleted":"0","num_feature":"8","num_nodes":"15","size_leaf_vector":"0"}},{"base_weights":[1.0747191E-2,-2.5484622E0,4.2856985E-1,1.7122782E0,-4.252712E0,5.806485E0,-4.430645E-1,-6.9233212E0,1.0332443E1,-5.6255016E0,-2.1967065E0,3.461509E0,1.7579979E1,-4.497843E0,6.746173E-1],"categories":[],"categories_nodes":[],"categories_segments":[],"categories_sizes":[],"default_left":[1,1,1,1,1,1,1,0,0,0,0,0,0,0,0],"id":38,"left_children":[1,3,5,7,9,11,13,-1,-1,-1,-1,-1,-1,-1,-1],"loss_changes":[7.810157E5,7.443771E5,2.9432895E6,2.1803535E6,2.0665688E5,2.4177035E6,2.4487028E6,0E0,0E0,0E0,0E0,0E0,0E0,0E0,0E0],"parents":[2147483647,0,0,1,1,2,2,3,3,4,4,5,5,6,6],"right_children":[2,4,6,8,10,12,14,-1,-1,-1,-1,-1,-1,-1,-1],"split_conditions":[7.5E0,2.5E0,1.35E1,1.5E0,5.5E0,1.25E1,2.15E1,-1.3846643E0,2.0664887E0,-1.1251004E0,-4.393413E-1,6.923018E-1,3.5159957E0,-8.9956856E-1,1.3492346E-1],"split_indices":[0,0,0,0,0,0,0,0,0,0,0,0,0,0,0],"split_type":[0,0,0,0,0,0,0,0,0,0,0,0,0,0,0],"sum_hessian":[7.304E5,1.0251E5,6.2789E5,2.9288E4,7.3222E4,8.7572E4,5.40318E5,1.4631E4,1.4657E4,4.3905E4,2.9317E4,7.3028E4,1.4544E4,1.16753E5,4.23565E5],"tree_param":{"num_deleted":"0","num_feature":"8","num_nodes":"15","size_leaf_vector":"0"}},{"base_weights":[8.601414E-3,8.7093633E-1,-1.1821474E0,-5.412193E-1,1.9932325E1,-5.8848963E0,2.922287E-1,6.7162454E-1,-3.2132347E1,2.9032986E1,1.0822822E1,-1.4530083E0,-2.3409647E1,1.3062979E1,-1.5312997E0],"categories":[],"categories_nodes":[],"categories_segments":[],"categories_sizes":[],"default_left":[1,1,1,1,1,1,1,0,0,0,0,0,0,0,0],"id":39,"left_children":[1,3,5,7,9,11,13,-1,-1,-1,-1,-1,-1,-1,-1],"loss_changes":[7.4999444E5,1.1402838E7,2.1271185E6,1.5111537E7,2.422013E6,5.687108E6,5.4391245E6,0E0,0E0,0E0,0E0,0E0,0E0,0E0,0E0],"parents":[2147483647,0,0,1,1,2,2,3,3,4,4,5,5,6,6],"right_children":[2,4,6,8,10,12,14,-1,-1,-1,-1,-1,-1,-1,-1],"split_conditions":[2.95E1,2.75E1,3.45E1,2.65E1,2.85E1,3.35E1,3.65E1,1.3432491E-1,-6.4264693E0,5.806597E0,2.1645644E0,-2.9060167E-1,-4.6819296E0,2.6125958E0,-3.0625996E-1],"split_indices":[0,0,0,0,0,0,0,0,0,0,0,0,0,0,0],"split_type":[0,0,0,0,0,0,0,0,0,0,0,0,0,0,0],"sum_hessian":[7.304E5,4.23618E5,3.06782E5,3.944E5,2.9218E4,7.3223E4,2.33559E5,3.79819E5,1.4581E4,1.4615E4,1.4603E4,5.8444E4,1.4779E4,2.9182E4,2.04377E5],"tree_param":{"num_deleted":"0","num_feature":"8","num_nodes":"15","size_leaf_vector":"0"}},{"base_weights":[6.88032E-3,-2.2034204E0,4.345961E-1,-3.8097818E0,-1.0359409E0,1.310842E0,-1.5990392E0,-2.8609254E0,-9.507586E0,1.6343506E1,-1.6555512E0,3.100533E0,1.1615592E-1,-8.926058E-1,-2.9928136E0],"categories":[],"categories_nodes":[],"categories_segments":[],"categories_sizes":[],"default_left":[1,1,1,1,1,1,1,0,0,0,0,0,0,0,0],"id":40,"left_children":[1,3,5,7,9,11,13,-1,-1,-1,-1,-1,-1,-1,-1],"loss_changes":[6.9050775E5,2.2208775E5,1.0905252E6,2.6944388E5,7.385514E5,9.144624E5,1.81445E5,0E0,0E0,0E0,0E0,0E0,0E0,0E0,0E0],"parents":[2147483647,0,0,1,1,2,2,3,3,4,4,5,5,6,6],"right_children":[2,4,6,8,10,12,14,-1,-1,-1,-1,-1,-1,-1,-1],"split_conditions":[2.5E0,2.15E1,3.5E0,1.85E1,2.25E1,4.5E0,1.15E1,-5.721851E-1,-1.9015172E0,3.2687013E0,-3.3111024E-1,6.2010664E-1,2.3231184E-2,-1.7852116E-1,-5.985627E-1],"split_indices":[4,0,3,0,0,1,4,0,0,0,0,0,0,0,0],"split_type":[0,0,0,0,0,0,0,0,0,0,0,0,0,0,0],"sum_hessian":[7.304E5,1.18423E5,6.11977E5,4.9842E4,6.8581E4,4.27694E5,1.84283E5,4.2728E4,7.114E3,2.36E3,6.6221E4,1.71211E5,2.56483E5,1.22298E5,6.1985E4],"tree_param":{"num_deleted":"0","num_feature":"8","num_nodes":"15","size_leaf_vector":"0"}},{"base_weights":[5.504428E-3,-4.7217482E-1,1.9157702E0,-5.92825E-1,5.502788E0,-2.3819056E0,2.3933513E0,-2.5649533E-1,-5.7456617E0,4.066028E0,8.804209E0,1.2858895E0,-7.831099E0,6.3251324E0,1.2710767E0],"categories":[],"categories_nodes":[],"categories_segments":[],"categories_sizes":[],"default_left":[1,1,1,1,1,1,1,0,0,0,0,0,0,0,0],"id":41,"left_children":[1,3,5,7,9,11,13,-1,-1,-1,-1,-1,-1,-1,-1],"loss_changes":[6.664877E5,4.2120925E5,2.9989075E5,9.9256944E5,5.4821062E4,2.9207316E5,5.802232E5,0E0,0E0,0E0,0E0,0E0,0E0,0E0,0E0],"parents":[2147483647,0,0,1,1,2,2,3,3,4,4,5,5,6,6],"right_children":[2,4,6,8,10,12,14,-1,-1,-1,-1,-1,-1,-1,-1],"split_conditions":[2.0165E3,4.95E1,5.5E0,4.65E1,7.5E0,3.5E0,1.55E1,-5.1299065E-2,-1.1491324E0,8.1320566E-1,1.7608417E0,2.5717792E-1,-1.5662198E0,1.2650265E0,2.5421533E-1],"split_indices":[2,0,0,0,1,0,0,0,0,0,0,0,0,0,0],"split_type":[0,0,0,0,0,0,0,0,0,0,0,0,0,0,0],"sum_hessian":[7.304E5,5.84293E5,1.46107E5,5.72729E5,1.1564E4,1.4612E4,1.31495E5,5.37638E5,3.5091E4,8.059E3,3.505E3,8.734E3,5.878E3,2.9198E4,1.02297E5],"tree_param":{"num_deleted":"0","num_feature":"8","num_nodes":"15","size_leaf_vector":"0"}},{"base_weights":[4.40598E-3,-1.7577087E0,4.4466177E-1,-1.9505256E0,1.2667941E0,-2.1026537E0,8.608184E-1,-1.7611797E0,-1.078148E1,8.072987E0,-2.148198E0,1.4529235E0,-3.5219028E0,1.3442897E1,5.6103575E-1],"categories":[],"categories_nodes":[],"categories_segments":[],"categories_sizes":[],"default_left":[1,1,1,1,1,1,1,0,0,0,0,0,0,0,0],"id":42,"left_children":[1,3,5,7,9,11,13,-1,-1,-1,-1,-1,-1,-1,-1],"loss_changes":[5.666321E5,8.515078E4,6.195075E5,2.2949084E5,2.0341766E5,4.1413056E5,1.8947215E6,0E0,0E0,0E0,0E0,0E0,0E0,0E0,0E0],"parents":[2147483647,0,0,1,1,2,2,3,3,4,4,5,5,6,6],"right_children":[2,4,6,8,10,12,14,-1,-1,-1,-1,-1,-1,-1,-1],"split_conditions":[2.0135E3,4.75E1,7.5E0,4.65E1,4.85E1,2.5E0,8.5E0,-3.5223594E-1,-2.156296E0,1.6145973E0,-4.2963958E-1,2.905847E-1,-7.043806E-1,2.6885793E0,1.1220715E-1],"split_indices":[2,0,0,0,0,0,0,0,0,0,0,0,0,0,0],"split_type":[0,0,0,0,0,0,0,0,0,0,0,0,0,0,0],"sum_hessian":[7.304E5,1.46007E5,5.84393E5,1.37257E5,8.75E3,8.2065E4,5.02328E5,1.34377E5,2.88E3,2.923E3,5.827E3,2.3412E4,5.8653E4,1.1689E4,4.90639E5],"tree_param":{"num_deleted":"0","num_feature":"8","num_nodes":"15","size_leaf_vector":"0"}},{"base_weights":[3.527423E-3,-1.2114722E0,5.9942275E-1,-2.2766933E0,-3.023953E-1,2.7541492E0,-6.946198E-1,-1.3372906E0,-2.274615E1,1.47564745E1,-1.5045394E0,1.0196606E0,6.168895E0,-2.6288036E-1,-2.39544E0],"categories":[],"categories_nodes":[],"categories_segments":[],"categories_sizes":[],"default_left":[1,1,1,1,1,1,1,0,0,0,0,0,0,0,0],"id":43,"left_children":[1,3,5,7,9,11,13,-1,-1,-1,-1,-1,-1,-1,-1],"loss_changes":[5.2882025E5,2.3274362E5,1.366426E6,2.1280302E6,2.3475922E6,1.0890731E6,2.248293E5,0E0,0E0,0E0,0E0,0E0,0E0,0E0,0E0],"parents":[2147483647,0,0,1,1,2,2,3,3,4,4,5,5,6,6],"right_children":[2,4,6,8,10,12,14,-1,-1,-1,-1,-1,-1,-1,-1],"split_conditions":[4.5E0,2.35E1,7.5E0,2.25E1,2.55E1,2.5E0,1.15E1,-2.6745814E-1,-4.54923E0,2.951295E0,-3.0090788E-1,2.0393212E-1,1.233779E0,-5.2576073E-2,-4.7908804E-1],"split_indices":[4,0,4,0,0,3,4,0,0,0,0,0,0,0,0],"split_type":[0,0,0,0,0,0,0,0,0,0,0,0,0,0,0],"sum_hessian":[7.304E5,2.40346E5,4.90054E5,1.10668E5,1.29678E5,1.83877E5,3.06177E5,1.05813E5,4.855E3,9.586E3,1.20092E5,1.2194E5,6.1937E4,2.44192E5,6.1985E4],"tree_param":{"num_deleted":"0","num_feature":"8","num_nodes":"15","size_leaf_vector":"0"}},{"base_weights":[2.8200885E-3,-2.0854564E0,3.4943047E-1,-2.4576328E0,6.358239E-1,-6.041595E0,4.801184E-1,-2.2712927E0,-1.0527752E1,9.507118E0,-1.1680188E0,-2.1615303E0,-6.8057837E0,8.860862E0,3.0557713E-1],"categories":[],"categories_nodes":[],"categories_segments":[],"categories_sizes":[],"default_left":[1,1,1,1,1,1,1,0,0,0,0,0,0,0,0],"id":44,"left_children":[1,3,5,7,9,11,13,-1,-1,-1,-1,-1,-1,-1,-1],"loss_changes":[5.286783E5,1.0530609E5,5.2321438E5,1.3752E5,2.0020139E5,3.720622E4,8.9796625E5,0E0,0E0,0E0,0E0,0E0,0E0,0E0,0E0],"parents":[2147483647,0,0,1,1,2,2,3,3,4,4,5,5,6,6],"right_children":[2,4,6,8,10,12,14,-1,-1,-1,-1,-1,-1,-1,-1],"split_conditions":[5E-1,4.45E1,1.5E0,4.35E1,4.55E1,2.5E0,2.5E0,-4.5425853E-1,-2.1055505E0,1.9014237E0,-2.3360376E-1,-4.3230605E-1,-1.3611568E0,1.7721723E0,6.1115425E-2],"split_indices":[6,0,0,0,0,4,0,0,0,0,0,0,0,0,0],"split_type":[0,0,0,0,0,0,0,0,0,0,0,0,0,0,0],"sum_hessian":[7.304E5,1.03973E5,6.26427E5,9.1464E4,1.2509E4,1.2552E4,6.13875E5,8.9401E4,2.063E3,2.113E3,1.0396E4,2.066E3,1.0486E4,1.2523E4,6.01352E5],"tree_param":{"num_deleted":"0","num_feature":"8","num_nodes":"15","size_leaf_vector":"0"}},{"base_weights":[2.2540912E-3,-3.2781294E-1,1.9812653E0,-4.3871784E-1,5.125192E0,-9.050036E-1,2.7036123E0,-1.4804624E-1,-4.8910556E0,3.3447742E0,7.766974E0,-1.235555E0,1.5327791E0,3.1866882E0,-2.8799896E0],"categories":[],"categories_nodes":[],"categories_segments":[],"categories_sizes":[],"default_left":[1,1,1,1,1,1,1,0,0,0,0,0,0,0,0],"id":45,"left_children":[1,3,5,7,9,11,13,-1,-1,-1,-1,-1,-1,-1,-1],"loss_changes":[4.7710322E5,3.7858275E5,2.1767725E5,7.9399606E5,5.866397E4,1.6843379E4,2.2525294E5,0E0,0E0,0E0,0E0,0E0,0E0,0E0,0E0],"parents":[2147483647,0,0,1,1,2,2,3,3,4,4,5,5,6,6],"right_children":[2,4,6,8,10,12,14,-1,-1,-1,-1,-1,-1,-1,-1],"split_conditions":[5.5E0,4.95E1,2.0135E3,4.65E1,2.0155E3,4.45E1,4.65E1,-2.9609248E-2,-9.782111E-1,6.6895485E-1,1.5533948E0,-2.4711101E-1,3.0655584E-1,6.373376E-1,-5.7599795E-1],"split_indices":[6,0,2,0,2,0,0,0,0,0,0,0,0,0,0],"split_type":[0,0,0,0,0,0,0,0,0,0,0,0,0,0,0],"sum_hessian":[7.304E5,6.25995E5,1.04405E5,6.13518E5,1.2477E4,2.0899E4,8.3506E4,5.7592E5,3.7598E4,7.455E3,5.022E3,1.8404E4,2.495E3,7.6857E4,6.649E3],"tree_param":{"num_deleted":"0","num_feature":"8","num_nodes":"15","size_leaf_vector":"0"}},{"base_weights":[1.8054803E-3,-3.018348E-1,2.228652E0,3.46528E-1,-5.362336E0,1.7871075E1,-9.177849E-1,-3.9824665E-2,7.506583E0,-9.986191E0,-2.2835128E0,1.3789805E1,2.3267096E1,-5.2942348E0,2.0045037E0],"categories":[],"categories_nodes":[],"categories_segments":[],"categories_sizes":[],"default_left":[1,1,1,1,1,1,1,0,0,0,0,0,0,0,0],"id":46,"left_children":[1,3,5,7,9,11,13,-1,-1,-1,-1,-1,-1,-1,-1],"loss_changes":[4.9386884E5,2.1089202E6,4.3136205E6,1.5761338E6,1.03919325E6,3.229055E5,9.3320375E5,0E0,0E0,0E0,0E0,0E0,0E0,0E0,0E0],"parents":[2147483647,0,0,1,1,2,2,3,3,4,4,5,5,6,6],"right_children":[2,4,6,8,10,12,14,-1,-1,-1,-1,-1,-1,-1,-1],"split_conditions":[4.45E1,3.95E1,4.55E1,3.75E1,4.15E1,3.5E0,4.75E1,-7.964933E-3,1.5013167E0,-1.9972382E0,-4.5670256E-1,2.757961E0,4.653419E0,-1.058847E0,4.0090075E-1],"split_indices":[0,0,0,0,0,6,0,0,0,0,0,0,0,0,0],"split_type":[0,0,0,0,0,0,0,0,0,0,0,0,0,0,0],"sum_hessian":[7.304E5,6.42758E5,8.7642E4,5.6976E5,7.2998E4,1.4676E4,7.2966E4,5.40591E5,2.9169E4,2.9177E4,4.3821E4,8.358E3,6.318E3,2.9214E4,4.3752E4],"tree_param":{"num_deleted":"0","num_feature":"8","num_nodes":"15","size_leaf_vector":"0"}},{"base_weights":[1.4523753E-3,-2.4774272E0,2.3162474E-1,-3.6401913E0,-1.1080866E0,1.0834751E0,-6.201065E-1,-3.065672E0,-1.825701E1,1.0248364E1,-1.6241914E0,-4.5744482E-1,1.8884327E1,-1.6554508E1,7.6314354E-1],"categories":[],"categories_nodes":[],"categories_segments":[],"categories_sizes":[],"default_left":[1,1,1,1,1,1,1,0,0,0,0,0,0,0,0],"id":47,"left_children":[1,3,5,7,9,11,13,-1,-1,-1,-1,-1,-1,-1,-1],"loss_changes":[4.1674516E5,9.880597E4,4.8491606E5,2.8176903E5,1.6705272E5,9.165611E6,7.3661145E6,0E0,0E0,0E0,0E0,0E0,0E0,0E0,0E0],"parents":[2147483647,0,0,1,1,2,2,3,3,4,4,5,5,6,6],"right_children":[2,4,6,8,10,12,14,-1,-1,-1,-1,-1,-1,-1,-1],"split_conditions":[1.5E0,2.75E1,2.55E1,2.65E1,2.85E1,2.35E1,2.75E1,-6.131344E-1,-3.651402E0,2.0496728E0,-3.2483828E-1,-9.1488965E-2,3.7768655E0,-3.3109016E0,1.526287E-1],"split_indices":[4,0,0,0,0,0,0,0,0,0,0,0,0,0,0],"split_type":[0,0,0,0,0,0,0,0,0,0,0,0,0,0,0],"sum_hessian":[7.304E5,6.2057E4,6.68343E5,3.3559E4,2.8498E4,3.34148E5,3.34195E5,3.2291E4,1.268E3,1.238E3,2.726E4,3.07528E5,2.662E4,2.6693E4,3.07502E5],"tree_param":{"num_deleted":"0","num_feature":"8","num_nodes":"15","size_leaf_vector":"0"}},{"base_weights":[1.1593358E-3,7.002859E-1,-9.642244E-1,-4.098031E-1,1.5684356E1,-1.244631E1,-3.9097342E-1,4.350561E-1,-2.2415976E1,2.286295E1,8.498789E0,-9.737866E0,-1.2970887E1,-1.2743452E0,1.6707726E0],"categories":[],"categories_nodes":[],"categories_segments":[],"categories_sizes":[],"default_left":[1,1,1,1,1,1,1,0,0,0,0,0,0,0,0],"id":48,"left_children":[1,3,5,7,9,11,13,-1,-1,-1,-1,-1,-1,-1,-1],"loss_changes":[4.929669E5,7.046337E6,2.0192768E6,7.332759E6,1.506987E6,2.06E4,5.3217525E5,0E0,0E0,0E0,0E0,0E0,0E0,0E0,0E0],"parents":[2147483647,0,0,1,1,2,2,3,3,4,4,5,5,6,6],"right_children":[2,4,6,8,10,12,14,-1,-1,-1,-1,-1,-1,-1,-1],"split_conditions":[2.95E1,2.75E1,3.05E1,2.65E1,2.85E1,2.5E0,4.45E1,8.701122E-2,-4.4831953E0,4.57259E0,1.6997578E0,-1.9475733E0,-2.5941775E0,-2.5486904E-1,3.3415452E-1],"split_indices":[0,0,0,0,0,4,0,0,0,0,0,0,0,0,0],"split_type":[0,0,0,0,0,0,0,0,0,0,0,0,0,0,0],"sum_hessian":[7.304E5,4.23618E5,3.06782E5,3.944E5,2.9218E4,1.4587E4,2.92195E5,3.79819E5,1.4581E4,1.4615E4,1.4603E4,2.37E3,1.2217E4,2.04553E5,8.7642E4],"tree_param":{"num_deleted":"0","num_feature":"8","num_nodes":"15","size_leaf_vector":"0"}},{"base_weights":[9.2371716E-4,1.1491708E0,-4.9144655E-1,3.0825076E-1,1.3045389E1,-1.194801E1,2.0094E-1,9.088708E-1,-7.4847846E0,1.9103285E0,1.5211582E1,-6.032261E0,-1.30943575E1,2.0009705E1,-4.2035297E-1],"categories":[],"categories_nodes":[],"categories_segments":[],"categories_sizes":[],"default_left":[1,1,1,1,1,1,1,0,0,0,0,0,0,0,0],"id":49,"left_children":[1,3,5,7,9,11,13,-1,-1,-1,-1,-1,-1,-1,-1],"loss_changes":[4.1294203E5,2.1928518E6,4.055022E6,9.582863E5,3.4904575E5,1.974935E5,5.9328165E6,0E0,0E0,0E0,0E0,0E0,0E0,0E0,0E0],"parents":[2147483647,0,0,1,1,2,2,3,3,4,4,5,5,6,6],"right_children":[2,4,6,8,10,12,14,-1,-1,-1,-1,-1,-1,-1,-1],"split_conditions":[1.55E1,1.45E1,1.75E1,1.35E1,2.5E0,2.5E0,1.85E1,1.8177417E-1,-1.496957E0,3.820657E-1,3.0423164E0,-1.2064523E0,-2.6188715E0,4.001941E0,-8.407059E-2],"split_indices":[0,0,0,0,4,4,0,0,0,0,0,0,0,0,0],"split_type":[0,0,0,0,0,0,0,0,0,0,0,0,0,0,0],"sum_hessian":[7.304E5,2.19202E5,5.11198E5,2.04731E5,1.4471E4,2.9133E4,4.82065E5,1.90082E5,1.4649E4,2.357E3,1.2114E4,4.73E3,2.4403E4,1.4659E4,4.67406E5],"tree_param":{"num_deleted":"0","num_feature":"8","num_nodes":"15","size_leaf_vector":"0"}},{"base_weights":[7.418545E-4,-9.513694E-1,6.90462E-1,5.997167E-1,-1.0255848E1,2.5609352E1,-1.9856866E-1,-3.098839E-1,1.6008038E1,-9.043553E0,-1.2684302E1,1.3658357E1,2.7914207E1,-2.3659615E1,6.732396E-1],"categories":[],"categories_nodes":[],"categories_segments":[],"categories_sizes":[],"default_left":[1,1,1,1,1,1,1,0,0,0,0,0,0,0,0],"id":50,"left_children":[1,3,5,7,9,11,13,-1,-1,-1,-1,-1,-1,-1,-1],"loss_changes":[4.796479E5,4.428278E6,9.383541E6,3.68599E6,1.289565E5,4.01533E5,8.3650205E6,0E0,0E0,0E0,0E0,0E0,0E0,0E0,0E0],"parents":[2147483647,0,0,1,1,2,2,3,3,4,4,5,5,6,6],"right_children":[2,4,6,8,10,12,14,-1,-1,-1,-1,-1,-1,-1,-1],"split_conditions":[2.15E1,1.85E1,2.25E1,1.75E1,2.05E1,2.5E0,2.35E1,-6.197678E-2,3.2016075E0,-1.8087107E0,-2.5368605E0,2.7316713E0,5.5828414E0,-4.731923E0,1.3464792E-1],"split_indices":[0,0,0,0,0,4,0,0,0,0,0,0,0,0,0],"split_type":[0,0,0,0,0,0,0,0,0,0,0,0,0,0,0],"sum_hessian":[7.304E5,3.06835E5,4.23565E5,2.62994E5,4.3841E4,1.459E4,4.08975E5,2.48335E5,1.4659E4,2.9246E4,1.4595E4,2.36E3,1.223E4,1.4652E4,3.94323E5],"tree_param":{"num_deleted":"0","num_feature":"8","num_nodes":"15","size_leaf_vector":"0"}},{"base_weights":[5.9652684E-4,4.7476622E-1,-1.2198119E0,2.834934E-2,1.6114523E1,-1.602335E1,-8.354951E-2,4.5575842E-1,-6.9881034E0,9.90036E0,1.814997E1,-1.0299091E1,-1.7143583E1,1.3177945E1,-1.1877023E0],"categories":[],"categories_nodes":[],"categories_segments":[],"categories_sizes":[],"default_left":[1,1,1,1,1,1,1,0,0,0,0,0,0,0,0],"id":51,"left_children":[1,3,5,7,9,11,13,-1,-1,-1,-1,-1,-1,-1,-1],"loss_changes":[4.2266956E5,3.672621E6,3.4377808E6,1.5337195E6,1.844645E5,9.324725E4,2.7793495E6,0E0,0E0,0E0,0E0,0E0,0E0,0E0,0E0],"parents":[2147483647,0,0,1,1,2,2,3,3,4,4,5,5,6,6],"right_children":[2,4,6,8,10,12,14,-1,-1,-1,-1,-1,-1,-1,-1],"split_conditions":[3.65E1,3.55E1,3.75E1,3.35E1,1.5E0,2.5E0,3.85E1,9.1151685E-2,-1.3976207E0,1.980072E0,3.629994E0,-2.0598183E0,-3.4287167E0,2.6355891E0,-2.3754047E-1],"split_indices":[0,0,0,0,3,4,0,0,0,0,0,0,0,0,0],"split_type":[0,0,0,0,0,0,0,0,0,0,0,0,0,0,0],"sum_hessian":[7.304E5,5.26023E5,2.04377E5,5.11426E5,1.4597E4,1.4568E4,1.89809E5,4.82062E5,2.9364E4,3.603E3,1.0994E4,2.386E3,1.2182E4,1.4588E4,1.75221E5],"tree_param":{"num_deleted":"0","num_feature":"8","num_nodes":"15","size_leaf_vector":"0"}},{"base_weights":[4.7954105E-4,-1.9371586E0,3.16823E-1,1.0642468E-1,-3.467451E0,9.91244E0,8.805329E-2,-4.904768E0,2.6120174E0,-5.3124733E0,-1.6234431E0,1.4466404E0,1.15418215E1,-9.471022E0,3.21893E-1],"categories":[],"categories_nodes":[],"categories_segments":[],"categories_sizes":[],"default_left":[1,1,1,1,1,1,1,0,0,0,0,0,0,0,0],"id":52,"left_children":[1,3,5,7,9,11,13,-1,-1,-1,-1,-1,-1,-1,-1],"loss_changes":[4.477066E5,3.20581E5,1.378337E6,5.511588E5,1.9942019E5,2.016655E5,1.3708425E6,0E0,0E0,0E0,0E0,0E0,0E0,0E0,0E0],"parents":[2147483647,0,0,1,1,2,2,3,3,4,4,5,5,6,6],"right_children":[2,4,6,8,10,12,14,-1,-1,-1,-1,-1,-1,-1,-1],"split_conditions":[7.5E0,3.5E0,8.5E0,1.5E0,5.5E0,2.5E0,9.5E0,-9.8095363E-1,5.224035E-1,-1.0624946E0,-3.2468864E-1,2.8932807E-1,2.3083644E0,-1.8942044E0,6.4378604E-2],"split_indices":[0,0,0,0,0,4,0,0,0,0,0,0,0,0,0],"split_type":[0,0,0,0,0,0,0,0,0,0,0,0,0,0,0],"sum_hessian":[7.304E5,1.0251E5,6.2789E5,4.3894E4,5.8616E4,1.462E4,6.1327E5,1.4631E4,2.9263E4,2.9299E4,2.9317E4,2.36E3,1.226E4,1.4643E4,5.98627E5],"tree_param":{"num_deleted":"0","num_feature":"8","num_nodes":"15","size_leaf_vector":"0"}},{"base_weights":[3.834142E-4,-4.8494387E-1,1.1363328E0,8.342493E-1,-2.244299E0,1.5604904E0,-3.45419E0,-1.6608363E0,1.6653758E0,-1.5734241E0,-3.5846517E0,-1.3478084E0,2.2848418E0,-4.645115E0,-2.5883873E0],"categories":[],"categories_nodes":[],"categories_segments":[],"categories_sizes":[],"default_left":[1,1,1,1,1,1,1,0,0,0,0,0,0,0,0],"id":53,"left_children":[1,3,5,7,9,11,13,-1,-1,-1,-1,-1,-1,-1,-1],"loss_changes":[4.026759E5,1.1877538E6,4.257302E5,6.0649475E5,1.971855E5,4.216494E5,1.905725E4,0E0,0E0,0E0,0E0,0E0,0E0,0E0,0E0],"parents":[2147483647,0,0,1,1,2,2,3,3,4,4,5,5,6,6],"right_children":[2,4,6,8,10,12,14,-1,-1,-1,-1,-1,-1,-1,-1],"split_conditions":[7.5E0,4.5E0,1.15E1,1.5E0,6.5E0,2.0135E3,2.15E1,-3.3216727E-1,3.3307517E-1,-3.1468484E-1,-7.169303E-1,-2.6956168E-1,4.5696837E-1,-9.2902297E-1,-5.176775E-1],"split_indices":[1,1,4,1,1,2,0,0,0,0,0,0,0,0,0],"split_type":[0,0,0,0,0,0,0,0,0,0,0,0,0,0,0],"sum_hessian":[7.304E5,5.11756E5,2.18644E5,2.92463E5,2.19293E5,2.00151E5,1.8493E4,7.3078E4,2.19385E5,1.46146E5,7.3147E4,3.991E4,1.60241E5,7.783E3,1.071E4],"tree_param":{"num_deleted":"0","num_feature":"8","num_nodes":"15","size_leaf_vector":"0"}},{"base_weights":[3.029891E-4,-5.770182E-1,8.6409867E-1,-1.2837691E0,-6.4570986E-2,2.6377964E0,1.035238E-1,-1.2880962E-1,-8.230649E0,1.7791882E1,-7.0401645E-1,-1.6102803E0,4.7649474E0,-1.6345605E0,2.4333699E0],"categories":[],"categories_nodes":[],"categories_segments":[],"categories_sizes":[],"default_left":[1,1,1,1,1,1,1,0,0,0,0,0,0,0,0],"id":54,"left_children":[1,3,5,7,9,11,13,-1,-1,-1,-1,-1,-1,-1,-1],"loss_changes":[3.642424E5,1.5855833E5,3.9473125E5,1.4764022E6,2.8977985E6,7.935305E5,8.292947E5,0E0,0E0,0E0,0E0,0E0,0E0,0E0,0E0],"parents":[2147483647,0,0,1,1,2,2,3,3,4,4,5,5,6,6],"right_children":[2,4,6,8,10,12,14,-1,-1,-1,-1,-1,-1,-1,-1],"split_conditions":[2.0155E3,2.15E1,3.5E0,1.85E1,2.25E1,1.5E0,7.5E0,-2.5761923E-2,-1.6461298E0,3.5583763E0,-1.4080329E-1,-3.2205606E-1,9.529895E-1,-3.269121E-1,4.8667398E-1],"split_indices":[2,0,1,0,0,1,1,0,0,0,0,0,0,0,0],"split_type":[0,0,0,0,0,0,0,0,0,0,0,0,0,0,0],"sum_hessian":[7.304E5,4.37797E5,2.92603E5,1.84012E5,2.53785E5,8.7814E4,2.04789E5,1.57781E5,2.6231E4,8.773E3,2.45012E5,2.93E4,5.8514E4,1.1729E5,8.7499E4],"tree_param":{"num_deleted":"0","num_feature":"8","num_nodes":"15","size_leaf_vector":"0"}},{"base_weights":[2.4615164E-4,2.0218028E-1,-2.3242517E0,-2.0022666E-1,9.040702E0,-1.3139107E1,1.2915466E0,5.824526E-2,-1.13138685E1,1.3987768E1,4.0628333E0,-7.658876E0,-1.4957169E1,8.436074E0,-2.2783127E0],"categories":[],"categories_nodes":[],"categories_segments":[],"categories_sizes":[],"default_left":[1,1,1,1,1,1,1,0,0,0,0,0,0,0,0],"id":55,"left_children":[1,3,5,7,9,11,13,-1,-1,-1,-1,-1,-1,-1,-1],"loss_changes":[3.4284738E5,2.3901705E6,2.2829278E6,1.8463672E6,7.20594E5,1.4563025E5,1.1159378E6,0E0,0E0,0E0,0E0,0E0,0E0,0E0,0E0],"parents":[2147483647,0,0,1,1,2,2,3,3,4,4,5,5,6,6],"right_children":[2,4,6,8,10,12,14,-1,-1,-1,-1,-1,-1,-1,-1],"split_conditions":[4.65E1,4.45E1,4.75E1,4.35E1,4.55E1,1.5E0,4.85E1,1.1649053E-2,-2.2627738E0,2.7975538E0,8.125667E-1,-1.5317752E0,-2.9914339E0,1.6872149E0,-4.5566255E-1],"split_indices":[0,0,0,0,0,3,0,0,0,0,0,0,0,0,0],"split_type":[0,0,0,0,0,0,0,0,0,0,0,0,0,0,0],"sum_hessian":[7.304E5,6.72021E5,5.8379E4,6.42758E5,2.9263E4,1.4627E4,4.3752E4,6.2815E5,1.4608E4,1.4676E4,1.4587E4,3.645E3,1.0982E4,1.4577E4,2.9175E4],"tree_param":{"num_deleted":"0","num_feature":"8","num_nodes":"15","size_leaf_vector":"0"}},{"base_weights":[1.9364902E-4,-7.819692E-1,5.863554E-1,-1.4844172E0,-1.8350129E-1,-7.1141607E-1,1.2241936E0,-7.861892E-1,-1.6962296E1,1.0896198E1,-1.0695021E0,-2.0845153E0,-2.2399534E-1,3.464111E0,-1.2385507E-1],"categories":[],"categories_nodes":[],"categories_segments":[],"categories_sizes":[],"default_left":[1,1,1,1,1,1,1,0,0,0,0,0,0,0,0],"id":56,"left_children":[1,3,5,7,9,11,13,-1,-1,-1,-1,-1,-1,-1,-1],"loss_changes":[3.3487025E5,1.3153592E5,3.4560488E5,1.5555588E6,1.6585301E6,9.208067E4,8.45257E5,0E0,0E0,0E0,0E0,0E0,0E0,0E0,0E0],"parents":[2147483647,0,0,1,1,2,2,3,3,4,4,5,5,6,6],"right_children":[2,4,6,8,10,12,14,-1,-1,-1,-1,-1,-1,-1,-1],"split_conditions":[2.5E0,2.35E1,4.5E0,2.25E1,2.55E1,1.5E0,7.5E0,-1.5723784E-1,-3.3924592E0,2.1792397E0,-2.1390043E-1,-4.1690308E-1,-4.479907E-2,6.928222E-1,-2.4771014E-2],"split_indices":[6,0,4,0,0,4,4,0,0,0,0,0,0,0,0],"split_type":[0,0,0,0,0,0,0,0,0,0,0,0,0,0,0],"sum_hessian":[7.304E5,3.12888E5,4.17512E5,1.43939E5,1.68949E5,1.37582E5,2.7993E5,1.37727E5,6.212E3,1.2509E4,1.5644E5,3.6043E4,1.01539E5,1.05173E5,1.74757E5],"tree_param":{"num_deleted":"0","num_feature":"8","num_nodes":"15","size_leaf_vector":"0"}},{"base_weights":[1.5319682E-4,-1.6083105E0,2.6275486E-1,8.945947E-1,-2.6094437E0,3.2567785E0,-4.2070082E-1,-3.9806917E0,5.761173E0,-3.4445312E0,-1.358746E0,2.261684E0,1.0285337E1,-9.713949E0,1.4094411E-1],"categories":[],"categories_nodes":[],"categories_segments":[],"categories_sizes":[],"default_left":[1,1,1,1,1,1,1,0,0,0,0,0,0,0,0],"id":57,"left_children":[1,3,5,7,9,11,13,-1,-1,-1,-1,-1,-1,-1,-1],"loss_changes":[3.08511E5,2.568684E5,1.2848439E6,6.949326E5,7.64725E4,8.16137E5,2.6682075E6,0E0,0E0,0E0,0E0,0E0,0E0,0E0,0E0],"parents":[2147483647,0,0,1,1,2,2,3,3,4,4,5,5,6,6],"right_children":[2,4,6,8,10,12,14,-1,-1,-1,-1,-1,-1,-1,-1],"split_conditions":[7.5E0,2.5E0,1.55E1,1.5E0,5.5E0,1.45E1,1.75E1,-7.9613835E-1,1.1522346E0,-6.8890625E-1,-2.7174923E-1,4.523368E-1,2.0570676E0,-1.9427899E0,2.8188823E-2],"split_indices":[0,0,0,0,0,0,0,0,0,0,0,0,0,0,0],"split_type":[0,0,0,0,0,0,0,0,0,0,0,0,0,0,0],"sum_hessian":[7.304E5,1.0251E5,6.2789E5,2.9288E4,7.3222E4,1.16692E5,5.11198E5,1.4631E4,1.4657E4,4.3905E4,2.9317E4,1.02221E5,1.4471E4,2.9133E4,4.82065E5],"tree_param":{"num_deleted":"0","num_feature":"8","num_nodes":"15","size_leaf_vector":"0"}},{"base_weights":[1.21486875E-4,1.2981491E0,-3.248315E-1,-1.1317103E0,3.7252011E0,-9.8900014E-1,7.854855E-1,-1.7424297E0,-6.9057006E-1,-5.2289593E-1,5.116705E0,-5.679713E-1,-2.6718242E0,2.6931148E0,-1.6535385E-1],"categories":[],"categories_nodes":[],"categories_segments":[],"categories_sizes":[],"default_left":[1,1,1,1,1,1,1,0,0,0,0,0,0,0,0],"id":58,"left_children":[1,3,5,7,9,11,13,-1,-1,-1,-1,-1,-1,-1,-1],"loss_changes":[3.0808206E5,8.6244525E5,4.3078316E5,1.9687227E4,4.3248694E5,2.5897366E5,3.9658947E5,0E0,0E0,0E0,0E0,0E0,0E0,0E0,0E0],"parents":[2147483647,0,0,1,1,2,2,3,3,4,4,5,5,6,6],"right_children":[2,4,6,8,10,12,14,-1,-1,-1,-1,-1,-1,-1,-1],"split_conditions":[2.5E0,1.5E0,7.5E0,2.15E1,1.5E0,6.5E0,8.5E0,-3.4848595E-1,-1.3811402E-1,-1.0457919E-1,1.0233411E0,-1.1359426E-1,-5.343649E-1,5.38623E-1,-3.307077E-2],"split_indices":[1,1,1,0,3,1,1,0,0,0,0,0,0,0,0],"split_type":[0,0,0,0,0,0,0,0,0,0,0,0,0,0,0],"sum_hessian":[7.304E5,1.4624E5,5.8416E5,7.3078E4,7.3162E4,3.65516E5,2.18644E5,3.0647E4,4.2431E4,1.8052E4,5.511E4,2.92369E5,7.3147E4,7.2729E4,1.45915E5],"tree_param":{"num_deleted":"0","num_feature":"8","num_nodes":"15","size_leaf_vector":"0"}},{"base_weights":[9.7915894E-5,5.4064834E-1,-7.463171E-1,-3.3255753E-1,1.23272505E1,-1.0178339E1,-2.7541718E-1,3.5166648E-1,-1.8154642E1,1.8070478E1,6.5784607E0,-9.521585E0,-1.278375E1,-2.5723503E0,3.012464E-1],"categories":[],"categories_nodes":[],"categories_segments":[],"categories_sizes":[],"default_left":[1,1,1,1,1,1,1,0,0,0,0,0,0,0,0],"id":59,"left_children":[1,3,5,7,9,11,13,-1,-1,-1,-1,-1,-1,-1,-1],"loss_changes":[2.9469894E5,4.3599465E6,1.3625855E6,4.80945E6,9.64593E5,2.484E4,3.8703125E5,0E0,0E0,0E0,0E0,0E0,0E0,0E0,0E0],"parents":[2147483647,0,0,1,1,2,2,3,3,4,4,5,5,6,6],"right_children":[2,4,6,8,10,12,14,-1,-1,-1,-1,-1,-1,-1,-1],"split_conditions":[2.95E1,2.75E1,3.05E1,2.65E1,2.85E1,2.0165E3,3.45E1,7.0333295E-2,-3.6309285E0,3.6140957E0,1.3156922E0,-1.9043171E0,-2.55675E0,-5.1447004E-1,6.024928E-2],"split_indices":[0,0,0,0,0,2,0,0,0,0,0,0,0,0,0],"split_type":[0,0,0,0,0,0,0,0,0,0,0,0,0,0,0],"sum_hessian":[7.304E5,4.23618E5,3.06782E5,3.944E5,2.9218E4,1.4587E4,2.92195E5,3.79819E5,1.4581E4,1.4615E4,1.4603E4,1.1654E4,2.933E3,5.8636E4,2.33559E5],"tree_param":{"num_deleted":"0","num_feature":"8","num_nodes":"15","size_leaf_vector":"0"}},{"base_weights":[7.349896E-5,4.168407E-1,-1.0725936E0,-1.13182165E-1,9.440492E0,-1.2952699E1,-1.6072217E-1,3.9969894E-1,-1.6841253E1,6.124643E0,1.2752969E1,-9.040848E0,-1.4249029E1,1.0406234E1,-1.040527E0],"categories":[],"categories_nodes":[],"categories_segments":[],"categories_sizes":[],"default_left":[1,1,1,1,1,1,1,0,0,0,0,0,0,0,0],"id":60,"left_children":[1,3,5,7,9,11,13,-1,-1,-1,-1,-1,-1,-1,-1],"loss_changes":[3.2652803E5,2.515838E6,2.214051E6,4.2626685E6,3.2045825E5,7.375125E4,1.7646476E6,0E0,0E0,0E0,0E0,0E0,0E0,0E0,0E0],"parents":[2147483647,0,0,1,1,2,2,3,3,4,4,5,5,6,6],"right_children":[2,4,6,8,10,12,14,-1,-1,-1,-1,-1,-1,-1,-1],"split_conditions":[3.65E1,3.45E1,3.75E1,3.35E1,3.55E1,1.5E0,3.85E1,7.993979E-2,-3.3682506E0,1.2249286E0,2.5505939E0,-1.8081696E0,-2.8498058E0,2.0812469E0,-2.081054E-1],"split_indices":[0,0,0,0,0,3,0,0,0,0,0,0,0,0,0],"split_type":[0,0,0,0,0,0,0,0,0,0,0,0,0,0,0],"sum_hessian":[7.304E5,5.26023E5,2.04377E5,4.96841E5,2.9182E4,1.4568E4,1.89809E5,4.82062E5,1.4779E4,1.4585E4,1.4597E4,3.628E3,1.094E4,1.4588E4,1.75221E5],"tree_param":{"num_deleted":"0","num_feature":"8","num_nodes":"15","size_leaf_vector":"0"}},{"base_weights":[5.54653E-5,-7.830516E-1,5.673471E-1,3.5622E-1,-7.6171823E0,1.791811E1,-5.1675905E-2,-3.563476E-1,1.2426877E1,-1.0225591E1,-6.317175E0,1.4035889E1,2.3769724E1,-1.7908758E1,6.118898E-1],"categories":[],"categories_nodes":[],"categories_segments":[],"categories_sizes":[],"default_left":[1,1,1,1,1,1,1,0,0,0,0,0,0,0,0],"id":61,"left_children":[1,3,5,7,9,11,13,-1,-1,-1,-1,-1,-1,-1,-1],"loss_changes":[3.2448116E5,2.3890068E6,4.5493205E6,2.262066E6,1.486015E5,3.31134E5,4.84611E6,0E0,0E0,0E0,0E0,0E0,0E0,0E0,0E0],"parents":[2147483647,0,0,1,1,2,2,3,3,4,4,5,5,6,6],"right_children":[2,4,6,8,10,12,14,-1,-1,-1,-1,-1,-1,-1,-1],"split_conditions":[2.15E1,1.85E1,2.25E1,1.75E1,1.95E1,2.0155E3,2.35E1,-7.126952E-2,2.4853754E0,-2.045118E0,-1.263435E0,2.8071778E0,4.753945E0,-3.5817516E0,1.22377954E-1],"split_indices":[0,0,0,0,0,2,0,0,0,0,0,0,0,0,0],"split_type":[0,0,0,0,0,0,0,0,0,0,0,0,0,0,0],"sum_hessian":[7.304E5,3.06835E5,4.23565E5,2.62994E5,4.3841E4,1.459E4,4.08975E5,2.48335E5,1.4659E4,1.458E4,2.9261E4,8.773E3,5.817E3,1.4652E4,3.94323E5],"tree_param":{"num_deleted":"0","num_feature":"8","num_nodes":"15","size_leaf_vector":"0"}},{"base_weights":[4.8455113E-5,-8.927293E-2,4.40202E0,7.531272E-2,-7.9666634E0,2.0634778E0,6.1539884E0,-6.668525E-2,6.7636576E0,-3.9471493E0,-9.260327E0,-3.5882792E-1,3.2483428E0,1.2058806E0,7.358603E0],"categories":[],"categories_nodes":[],"categories_segments":[],"categories_sizes":[],"default_left":[1,1,1,1,1,1,1,0,0,0,0,0,0,0,0],"id":62,"left_children":[1,3,5,7,9,11,13,-1,-1,-1,-1,-1,-1,-1,-1],"loss_changes":[2.871869E5,9.2813775E5,5.9501094E4,6.659768E5,7.614719E4,1.786183E4,4.9487656E4,0E0,0E0,0E0,0E0,0E0,0E0,0E0,0E0],"parents":[2147483647,0,0,1,1,2,2,3,3,4,4,5,5,6,6],"right_children":[2,4,6,8,10,12,14,-1,-1,-1,-1,-1,-1,-1,-1],"split_conditions":[4.95E1,4.85E1,2.5E0,4.75E1,1.5E0,5E-1,2.0135E3,-1.3337051E-2,1.3527316E0,-7.8942984E-1,-1.8520654E0,-7.176559E-2,6.496686E-1,2.4117613E-1,1.4717206E0],"split_indices":[0,0,6,0,3,6,2,0,0,0,0,0,0,0,0],"split_type":[0,0,0,0,0,0,0,0,0,0,0,0,0,0,0],"sum_hessian":[7.304E5,7.15875E5,1.4525E4,7.01225E5,1.465E4,6.222E3,8.303E3,6.86648E5,1.4577E4,3.568E3,1.1082E4,2.044E3,4.178E3,1.626E3,6.677E3],"tree_param":{"num_deleted":"0","num_feature":"8","num_nodes":"15","size_leaf_vector":"0"}},{"base_weights":[3.9382492E-5,3.943471E-1,-1.0148219E0,-1.9698821E-2,7.4434853E0,-1.0471513E1,-2.889616E-1,3.9612803E-1,-1.3582265E1,4.790763E0,1.0093517E1,-8.717845E0,-1.2825351E1,8.216098E0,-9.9709195E-1],"categories":[],"categories_nodes":[],"categories_segments":[],"categories_sizes":[],"default_left":[1,1,1,1,1,1,1,0,0,0,0,0,0,0,0],"id":63,"left_children":[1,3,5,7,9,11,13,-1,-1,-1,-1,-1,-1,-1,-1],"loss_changes":[2.9228325E5,1.535289E6,1.402896E6,2.8020348E6,2.0510225E5,6.002675E4,1.1431752E6,0E0,0E0,0E0,0E0,0E0,0E0,0E0,0E0],"parents":[2147483647,0,0,1,1,2,2,3,3,4,4,5,5,6,6],"right_children":[2,4,6,8,10,12,14,-1,-1,-1,-1,-1,-1,-1,-1],"split_conditions":[3.65E1,3.45E1,3.75E1,3.35E1,3.55E1,3.5E0,3.85E1,7.922561E-2,-2.716453E0,9.581526E-1,2.0187035E0,-1.743569E0,-2.5650702E0,1.6432196E0,-1.994184E-1],"split_indices":[0,0,0,0,0,6,0,0,0,0,0,0,0,0,0],"split_type":[0,0,0,0,0,0,0,0,0,0,0,0,0,0,0],"sum_hessian":[7.304E5,5.26023E5,2.04377E5,4.96841E5,2.9182E4,1.4568E4,1.89809E5,4.82062E5,1.4779E4,1.4585E4,1.4597E4,8.351E3,6.217E3,1.4588E4,1.75221E5],"tree_param":{"num_deleted":"0","num_feature":"8","num_nodes":"15","size_leaf_vector":"0"}},{"base_weights":[2.7700964E-5,-7.182311E-1,5.0680125E-1,-1.5487188E0,-1.1556438E-1,3.0681858E0,-5.1440626E-1,-8.845881E-1,-5.5420685E0,1.0853619E1,-5.0834453E-1,-2.6363497E0,3.700138E0,-1.1850351E0,5.624755E-2],"categories":[],"categories_nodes":[],"categories_segments":[],"categories_sizes":[],"default_left":[1,1,1,1,1,1,1,0,0,0,0,0,0,0,0],"id":64,"left_children":[1,3,5,7,9,11,13,-1,-1,-1,-1,-1,-1,-1,-1],"loss_changes":[2.6586238E5,1.5123011E5,1.120172E6,3.369743E5,7.543941E5,4.4007488E5,1.17173445E5,0E0,0E0,0E0,0E0,0E0,0E0,0E0,0E0],"parents":[2147483647,0,0,1,1,2,2,3,3,4,4,5,5,6,6],"right_children":[2,4,6,8,10,12,14,-1,-1,-1,-1,-1,-1,-1,-1],"split_conditions":[5.5E0,2.15E1,7.5E0,1.85E1,2.25E1,5.5E0,2.35E1,-1.7691763E-1,-1.1084137E0,2.1707237E0,-1.0166891E-1,-5.2726996E-1,7.400276E-1,-2.3700702E-1,1.1249511E-2],"split_indices":[4,0,4,0,0,0,0,0,0,0,0,0,0,0,0],"split_type":[0,0,0,0,0,0,0,0,0,0,0,0,0,0,0],"sum_hessian":[7.304E5,3.02153E5,4.28247E5,1.2706E5,1.75093E5,1.2207E5,3.06177E5,1.08943E5,1.8117E4,6.052E3,1.69041E5,1.2174E4,1.09896E5,1.40758E5,1.65419E5],"tree_param":{"num_deleted":"0","num_feature":"8","num_nodes":"15","size_leaf_vector":"0"}},{"base_weights":[2.3499657E-5,-3.7557966E-1,9.371586E-1,-1.4277383E0,-1.1351514E-1,1.2637126E0,-2.8339057E0,-1.7826185E0,4.3560177E-1,-1.9968623E-1,4.1150417E0,7.8802437E-1,1.17107E1,-1.3821164E1,8.4400225E-1],"categories":[],"categories_nodes":[],"categories_segments":[],"categories_sizes":[],"default_left":[1,1,1,1,1,1,1,0,0,0,0,0,0,0,0],"id":65,"left_children":[1,3,5,7,9,11,13,-1,-1,-1,-1,-1,-1,-1,-1],"loss_changes":[2.5709484E5,1.4377222E5,2.5735828E5,6.8754875E4,1.5210914E5,9.5577656E5,6.730423E5,0E0,0E0,0E0,0E0,0E0,0E0,0E0,0E0],"parents":[2147483647,0,0,1,1,2,2,3,3,4,4,5,5,6,6],"right_children":[2,4,6,8,10,12,14,-1,-1,-1,-1,-1,-1,-1,-1],"split_conditions":[4.5E0,5E-1,4.65E1,4.25E1,4.95E1,4.45E1,4.75E1,-3.5652372E-1,8.7120354E-2,-3.9937247E-2,8.2300836E-1,1.5760487E-1,2.34214E0,-2.7642329E0,1.6880046E-1],"split_indices":[6,6,0,0,0,0,0,0,0,0,0,0,0,0,0],"split_type":[0,0,0,0,0,0,0,0,0,0,0,0,0,0,0],"sum_hessian":[7.304E5,5.21417E5,2.08983E5,1.03973E5,4.17444E5,1.92329E5,1.6654E4,8.7339E4,1.6634E4,4.09108E5,8.336E3,1.83954E5,8.375E3,4.176E3,1.2478E4],"tree_param":{"num_deleted":"0","num_feature":"8","num_nodes":"15","size_leaf_vector":"0"}},{"base_weights":[1.9291781E-5,3.777187E-1,-9.7209585E-1,5.353325E-2,5.896979E0,-8.436408E0,-3.991622E-1,3.9008448E-1,-1.0923391E1,3.8212297E0,8.668214E0,-4.9198704E0,-9.492123E0,6.515859E0,-9.7490525E-1],"categories":[],"categories_nodes":[],"categories_segments":[],"categories_sizes":[],"default_left":[1,1,1,1,1,1,1,0,0,0,0,0,0,0,0],"id":66,"left_children":[1,3,5,7,9,11,13,-1,-1,-1,-1,-1,-1,-1,-1],"loss_changes":[2.6817975E5,9.4119544E5,8.740305E5,1.8354864E6,1.6783888E5,5.404025E4,7.5569225E5,0E0,0E0,0E0,0E0,0E0,0E0,0E0,0E0],"parents":[2147483647,0,0,1,1,2,2,3,3,4,4,5,5,6,6],"right_children":[2,4,6,8,10,12,14,-1,-1,-1,-1,-1,-1,-1,-1],"split_conditions":[3.65E1,3.45E1,3.75E1,3.35E1,3.5E0,1.25E1,3.85E1,7.80169E-2,-2.1846783E0,7.642459E-1,1.7336428E0,-9.839741E-1,-1.8984245E0,1.3031719E0,-1.9498105E-1],"split_indices":[0,0,0,0,6,5,0,0,0,0,0,0,0,0,0],"split_type":[0,0,0,0,0,0,0,0,0,0,0,0,0,0,0],"sum_hessian":[7.304E5,5.26023E5,2.04377E5,4.96841E5,2.9182E4,1.4568E4,1.89809E5,4.82062E5,1.4779E4,1.6686E4,1.2496E4,3.365E3,1.1203E4,1.4588E4,1.75221E5],"tree_param":{"num_deleted":"0","num_feature":"8","num_nodes":"15","size_leaf_vector":"0"}},{"base_weights":[1.2975008E-5,-2.953528E-1,1.181197E0,-4.7314277E-1,1.305843E0,1.4858415E0,-2.3105316E0,-2.4328287E-1,-2.3126004E0,4.1755253E-1,2.4893858E0,1.0487368E0,1.1060468E1,-1.3227184E1,1.289824E0],"categories":[],"categories_nodes":[],"categories_segments":[],"categories_sizes":[],"default_left":[1,1,1,1,1,1,1,0,0,0,0,0,0,0,0],"id":67,"left_children":[1,3,5,7,9,11,13,-1,-1,-1,-1,-1,-1,-1,-1],"loss_changes":[2.5482364E5,1.6633544E5,1.5542373E5,2.2235962E5,6.1390312E4,5.6240075E5,4.608545E5,0E0,0E0,0E0,0E0,0E0,0E0,0E0,0E0],"parents":[2147483647,0,0,1,1,2,2,3,3,4,4,5,5,6,6],"right_children":[2,4,6,8,10,12,14,-1,-1,-1,-1,-1,-1,-1,-1],"split_conditions":[2.0165E3,9.5E0,4.65E1,8.5E0,3.5E0,4.45E1,4.75E1,-4.8656575E-2,-4.625201E-1,8.351051E-2,4.9787718E-1,2.0974736E-1,2.2120936E0,-2.645437E0,2.5796482E-1],"split_indices":[2,1,0,1,6,0,0,0,0,0,0,0,0,0,0],"split_type":[0,0,0,0,0,0,0,0,0,0,0,0,0,0,0],"sum_hessian":[7.304E5,5.84293E5,1.46107E5,5.259E5,5.8393E4,1.34383E5,1.1724E4,4.67484E5,5.8416E4,3.3358E4,2.5035E4,1.28517E5,5.866E3,2.907E3,8.817E3],"tree_param":{"num_deleted":"0","num_feature":"8","num_nodes":"15","size_leaf_vector":"0"}},{"base_weights":[1.0909714E-5,-5.8274615E-1,4.9668837E-1,4.8227087E-2,-1.4423641E1,1.2658669E1,-4.733489E-1,-5.8193886E-1,1.3300063E1,-6.850923E0,-1.6920456E1,5.3356805E0,1.9976267E1,-9.676516E0,3.26367E-1],"categories":[],"categories_nodes":[],"categories_segments":[],"categories_sizes":[],"default_left":[1,1,1,1,1,1,1,0,0,0,0,0,0,0,0],"id":68,"left_children":[1,3,5,7,9,11,13,-1,-1,-1,-1,-1,-1,-1,-1],"loss_changes":[2.1140923E5,2.9350485E6,4.6520725E6,2.68419E6,2.7693825E5,1.560766E6,2.6878232E6,0E0,0E0,0E0,0E0,0E0,0E0,0E0,0E0],"parents":[2147483647,0,0,1,1,2,2,3,3,4,4,5,5,6,6],"right_children":[2,4,6,8,10,12,14,-1,-1,-1,-1,-1,-1,-1,-1],"split_conditions":[2.35E1,2.25E1,2.55E1,2.15E1,1.5E0,2.45E1,2.75E1,-1.1638778E-1,2.6600127E0,-1.3701847E0,-3.3840911E0,1.0671362E0,3.9952533E0,-1.9353031E0,6.52734E-2],"split_indices":[0,0,0,0,3,0,0,0,0,0,0,0,0,0,0],"split_type":[0,0,0,0,0,0,0,0,0,0,0,0,0,0,0],"sum_hessian":[7.304E5,3.36077E5,3.94323E5,3.21425E5,1.4652E4,2.9127E4,3.65196E5,3.06835E5,1.459E4,3.634E3,1.1018E4,1.4559E4,1.4568E4,2.9196E4,3.36E5],"tree_param":{"num_deleted":"0","num_feature":"8","num_nodes":"15","size_leaf_vector":"0"}},{"base_weights":[9.207839E-6,8.4520006E-1,-3.6241007E-1,-9.690435E-1,3.579608E0,-7.783738E0,8.610391E-2,-7.914927E-2,-8.086855E0,-2.8702545E0,4.8327565E0,-1.0129783E1,-5.4331293E0,9.9953165E0,-2.2469404E-1],"categories":[],"categories_nodes":[],"categories_segments":[],"categories_sizes":[],"default_left":[1,1,1,1,1,1,1,0,0,0,0,0,0,0,0],"id":69,"left_children":[1,3,5,7,9,11,13,-1,-1,-1,-1,-1,-1,-1,-1],"loss_changes":[2.2373197E5,1.0874438E6,1.7015621E6,8.3466894E5,7.0667875E5,1.6060825E5,1.4846511E6,0E0,0E0,0E0,0E0,0E0,0E0,0E0,0E0],"parents":[2147483647,0,0,1,1,2,2,3,3,4,4,5,5,6,6],"right_children":[2,4,6,8,10,12,14,-1,-1,-1,-1,-1,-1,-1,-1],"split_conditions":[1.55E1,9.5E0,1.75E1,8.5E0,2.5E0,1.65E1,1.85E1,-1.5829854E-2,-1.617371E0,-5.740509E-1,9.665513E-1,-2.0259566E0,-1.0866259E0,1.9990634E0,-4.493881E-2],"split_indices":[0,0,0,0,4,0,0,0,0,0,0,0,0,0,0],"split_type":[0,0,0,0,0,0,0,0,0,0,0,0,0,0,0],"sum_hessian":[7.304E5,2.19202E5,5.11198E5,1.31773E5,8.7429E4,2.9133E4,4.82065E5,1.1713E5,1.4643E4,1.4223E4,7.3206E4,1.4579E4,1.4554E4,1.4659E4,4.67406E5],"tree_param":{"num_deleted":"0","num_feature":"8","num_nodes":"15","size_leaf_vector":"0"}},{"base_weights":[3.183758E-6,3.172999E-1,-9.3493116E-1,-5.4641956E-1,1.3779627E0,-2.5038526E0,-8.652061E-2,-1.1324705E0,-4.571232E-2,2.0837133E0,-8.5297E-1,-2.6999469E0,-7.50742E-1,1.4107349E0,-1.5850217E0],"categories":[],"categories_nodes":[],"categories_segments":[],"categories_sizes":[],"default_left":[1,1,1,1,1,1,1,0,0,0,0,0,0,0,0],"id":70,"left_children":[1,3,5,7,9,11,13,-1,-1,-1,-1,-1,-1,-1,-1],"loss_changes":[2.1667494E5,4.9958488E5,2.463485E5,8.819919E4,3.8537197E5,2.2327875E4,2.6950594E5,0E0,0E0,0E0,0E0,0E0,0E0,0E0,0E0],"parents":[2147483647,0,0,1,1,2,2,3,3,4,4,5,5,6,6],"right_children":[2,4,6,8,10,12,14,-1,-1,-1,-1,-1,-1,-1,-1],"split_conditions":[3.95E1,5.5E0,1.05E1,2.35E1,3.85E1,9.5E0,1.15E1,-2.264941E-1,-9.142464E-3,4.1674265E-1,-1.70594E-1,-5.399894E-1,-1.501484E-1,2.82147E-1,-3.1700435E-1],"split_indices":[5,4,4,0,0,1,4,0,0,0,0,0,0,0,0],"split_type":[0,0,0,0,0,0,0,0,0,0,0,0,0,0,0],"sum_hessian":[7.304E5,5.45328E5,1.85072E5,3.00569E5,2.44759E5,6.4954E4,1.20118E5,1.38482E5,1.62087E5,1.85938E5,5.8821E4,5.8419E4,6.535E3,6.0084E4,6.0034E4],"tree_param":{"num_deleted":"0","num_feature":"8","num_nodes":"15","size_leaf_vector":"0"}},{"base_weights":[1.4962787E-6,-6.5231234E-1,4.346621E-1,-8.6717343E-1,4.7675768E-1,1.3404218E0,-1.703938E-1,-6.733986E-1,-4.7522864E0,7.7897415E0,-5.681449E-1,-3.0129232E0,1.8251473E0,-1.6404488E0,1.3060199E0],"categories":[],"categories_nodes":[],"categories_segments":[],"categories_sizes":[],"default_left":[1,1,1,1,1,1,1,0,0,0,0,0,0,0,0],"id":71,"left_children":[1,3,5,7,9,11,13,-1,-1,-1,-1,-1,-1,-1,-1],"loss_changes":[2.0709462E5,7.085559E4,2.4021944E5,1.8472719E5,3.5682516E5,3.704323E5,5.703553E5,0E0,0E0,0E0,0E0,0E0,0E0,0E0,0E0],"parents":[2147483647,0,0,1,1,2,2,3,3,4,4,5,5,6,6],"right_children":[2,4,6,8,10,12,14,-1,-1,-1,-1,-1,-1,-1,-1],"split_conditions":[2.0145E3,4.25E1,4.5E0,4.05E1,4.35E1,5.5E0,7.5E0,-1.3467972E-1,-9.504573E-1,1.5579484E0,-1.1362898E-1,-6.0258466E-1,3.6502945E-1,-3.2808977E-1,2.6120397E-1],"split_indices":[2,0,1,0,0,0,1,0,0,0,0,0,0,0,0],"split_type":[0,0,0,0,0,0,0,0,0,0,0,0,0,0,0],"sum_hessian":[7.304E5,2.92073E5,4.38327E5,2.45378E5,4.6695E4,1.75542E5,2.62785E5,2.33722E5,1.1656E4,5.837E3,4.0858E4,1.7587E4,1.57955E5,1.31676E5,1.31109E5],"tree_param":{"num_deleted":"0","num_feature":"8","num_nodes":"15","size_leaf_vector":"0"}},{"base_weights":[1.1142918E-6,8.421755E-1,-2.9627392E-1,-1.00274496E-1,1.2216248E1,-2.66553E0,3.568012E-1,-9.851512E-1,1.1418307E0,3.7643387E0,1.3852083E1,-8.830569E-1,-5.6298747E0,1.0665672E1,-1.098832E-2],"categories":[],"categories_nodes":[],"categories_segments":[],"categories_sizes":[],"default_left":[1,1,1,1,1,1,1,0,0,0,0,0,0,0,0],"id":72,"left_children":[1,3,5,7,9,11,13,-1,-1,-1,-1,-1,-1,-1,-1],"loss_changes":[1.8224642E5,2.0375949E6,8.360377E5,1.9293777E5,2.01046E5,6.1690725E5,1.6059484E6,0E0,0E0,0E0,0E0,0E0,0E0,0E0,0E0],"parents":[2147483647,0,0,1,1,2,2,3,3,4,4,5,5,6,6],"right_children":[2,4,6,8,10,12,14,-1,-1,-1,-1,-1,-1,-1,-1],"split_conditions":[1.35E1,1.25E1,2.15E1,7.5E0,2.5E0,1.85E1,2.25E1,-1.9703023E-1,2.2836614E-1,7.5286776E-1,2.7704167E0,-1.7661138E-1,-1.125975E0,2.1331346E0,-2.197664E-3],"split_indices":[0,0,0,0,4,0,0,0,0,0,0,0,0,0,0],"split_type":[0,0,0,0,0,0,0,0,0,0,0,0,0,0,0],"sum_hessian":[7.304E5,1.90082E5,5.40318E5,1.75538E5,1.4544E4,1.16753E5,4.23565E5,1.0251E5,7.3028E4,2.359E3,1.2185E4,7.2912E4,4.3841E4,1.459E4,4.08975E5],"tree_param":{"num_deleted":"0","num_feature":"8","num_nodes":"15","size_leaf_vector":"0"}},{"base_weights":[6.9704147E-6,-2.0169379E-1,1.2093616E0,-3.7010136E-1,1.0328615E0,1.8129482E0,-3.4143054E-1,-1.8551409E-1,-8.308903E0,9.627361E0,-6.92977E-1,1.5302559E0,1.1694952E1,-9.801592E0,3.9022633E-1],"categories":[],"categories_nodes":[],"categories_segments":[],"categories_sizes":[],"default_left":[1,1,1,1,1,1,1,0,0,0,0,0,0,0,0],"id":73,"left_children":[1,3,5,7,9,11,13,-1,-1,-1,-1,-1,-1,-1,-1],"loss_changes":[1.7816531E5,1.3015024E5,9.772855E4,8.072208E5,1.1145816E6,2.0993264E5,2.0247423E5,0E0,0E0,0E0,0E0,0E0,0E0,0E0,0E0],"parents":[2147483647,0,0,1,1,2,2,3,3,4,4,5,5,6,6],"right_children":[2,4,6,8,10,12,14,-1,-1,-1,-1,-1,-1,-1,-1],"split_conditions":[5.5E0,4.45E1,3.65E1,4.35E1,4.55E1,3.55E1,3.75E1,-3.710282E-2,-1.6617806E0,1.9254723E0,-1.385954E-1,3.060512E-1,2.3389904E0,-1.9603184E0,7.804527E-2],"split_indices":[6,0,0,0,0,0,0,0,0,0,0,0,0,0,0],"split_type":[0,0,0,0,0,0,0,0,0,0,0,0,0,0,0],"sum_hessian":[7.304E5,6.25995E5,1.04405E5,5.50853E5,7.5142E4,7.5154E4,2.9251E4,5.38337E5,1.2516E4,1.2565E4,6.2577E4,7.3065E4,2.089E3,2.099E3,2.7152E4],"tree_param":{"num_deleted":"0","num_feature":"8","num_nodes":"15","size_leaf_vector":"0"}},{"base_weights":[6.17222E-6,-7.0148975E-2,3.4574194E0,5.2523416E-2,-5.9414887E0,2.7488312E-1,4.5176554E0,-7.047215E-2,5.845824E0,-1.4462075E0,-7.066528E0,-1.806254E0,1.3668842E0,6.1401935E0,1.6043339E0],"categories":[],"categories_nodes":[],"categories_segments":[],"categories_sizes":[],"default_left":[1,1,1,1,1,1,1,0,0,0,0,0,0,0,0],"id":74,"left_children":[1,3,5,7,9,11,13,-1,-1,-1,-1,-1,-1,-1,-1],"loss_changes":[1.7716289E5,5.1561088E5,4.9012953E4,4.996592E5,7.408528E4,8.254293E3,5.149528E4,0E0,0E0,0E0,0E0,0E0,0E0,0E0,0E0],"parents":[2147483647,0,0,1,1,2,2,3,3,4,4,5,5,6,6],"right_children":[2,4,6,8,10,12,14,-1,-1,-1,-1,-1,-1,-1,-1],"split_conditions":[4.95E1,4.85E1,1.5E0,4.75E1,2.0135E3,1.5E0,3.85E1,-1.409443E-2,1.1691648E0,-2.8924152E-1,-1.4133056E0,-3.6125082E-1,2.7337685E-1,1.2280387E0,3.208668E-1],"split_indices":[0,0,3,0,2,4,5,0,0,0,0,0,0,0,0],"split_type":[0,0,0,0,0,0,0,0,0,0,0,0,0,0,0],"sum_hessian":[7.304E5,7.15875E5,1.4525E4,7.01225E5,1.465E4,3.63E3,1.0895E4,6.86648E5,1.4577E4,2.933E3,1.1717E4,1.249E3,2.381E3,6.997E3,3.898E3],"tree_param":{"num_deleted":"0","num_feature":"8","num_nodes":"15","size_leaf_vector":"0"}},{"base_weights":[5.861273E-6,4.104787E-1,-5.667925E-1,-2.5080243E-1,9.336504E0,-5.3282213E0,2.2702858E-1,2.4046318E-1,-1.3046869E1,1.3931773E1,4.7368193E0,-2.4856386E0,-1.0987423E1,1.4534084E1,-6.145537E-1],"categories":[],"categories_nodes":[],"categories_segments":[],"categories_sizes":[],"default_left":[1,1,1,1,1,1,1,0,0,0,0,0,0,0,0],"id":75,"left_children":[1,3,5,7,9,11,13,-1,-1,-1,-1,-1,-1,-1,-1],"loss_changes":[1.6993192E5,2.500461E6,1.1595559E6,2.4793135E6,6.1752975E5,7.051834E5,3.1660272E6,0E0,0E0,0E0,0E0,0E0,0E0,0E0,0E0],"parents":[2147483647,0,0,1,1,2,2,3,3,4,4,5,5,6,6],"right_children":[2,4,6,8,10,12,14,-1,-1,-1,-1,-1,-1,-1,-1],"split_conditions":[2.95E1,2.75E1,3.25E1,2.65E1,2.85E1,3.15E1,3.35E1,4.8092637E-2,-2.6093738E0,2.7863548E0,9.4736385E-1,-4.9712774E-1,-2.1974847E0,2.906817E0,-1.2291074E-1],"split_indices":[0,0,0,0,0,0,0,0,0,0,0,0,0,0,0],"split_type":[0,0,0,0,0,0,0,0,0,0,0,0,0,0,0],"sum_hessian":[7.304E5,4.23618E5,3.06782E5,3.944E5,2.9218E4,4.3837E4,2.62945E5,3.79819E5,1.4581E4,1.4615E4,1.4603E4,2.9181E4,1.4656E4,1.4607E4,2.48338E5],"tree_param":{"num_deleted":"0","num_feature":"8","num_nodes":"15","size_leaf_vector":"0"}},{"base_weights":[5.832678E-6,-5.371835E-1,4.5784637E-1,-3.4669876E-2,-1.156021E1,1.0018291E1,-3.0469298E-1,-4.398963E-1,8.48689E0,-7.2305493E0,-1.4745688E1,4.1589108E0,1.5873364E1,-6.5216775E0,2.3553634E-1],"categories":[],"categories_nodes":[],"categories_segments":[],"categories_sizes":[],"default_left":[1,1,1,1,1,1,1,0,0,0,0,0,0,0,0],"id":76,"left_children":[1,3,5,7,9,11,13,-1,-1,-1,-1,-1,-1,-1,-1],"loss_changes":[1.7964022E5,1.8616099E6,2.87471E6,1.1099395E6,2.0198825E5,9.99231E5,1.2265512E6,0E0,0E0,0E0,0E0,0E0,0E0,0E0,0E0],"parents":[2147483647,0,0,1,1,2,2,3,3,4,4,5,5,6,6],"right_children":[2,4,6,8,10,12,14,-1,-1,-1,-1,-1,-1,-1,-1],"split_conditions":[2.35E1,2.25E1,2.55E1,2.15E1,2.5E0,2.45E1,2.75E1,-8.797926E-2,1.697378E0,-1.4461099E0,-2.9491377E0,8.3178216E-1,3.1746728E0,-1.3043355E0,4.7107268E-2],"split_indices":[0,0,0,0,6,0,0,0,0,0,0,0,0,0,0],"split_type":[0,0,0,0,0,0,0,0,0,0,0,0,0,0,0],"sum_hessian":[7.304E5,3.36077E5,3.94323E5,3.21425E5,1.4652E4,2.9127E4,3.65196E5,3.06835E5,1.459E4,6.212E3,8.44E3,1.4559E4,1.4568E4,2.9196E4,3.36E5],"tree_param":{"num_deleted":"0","num_feature":"8","num_nodes":"15","size_leaf_vector":"0"}},{"base_weights":[5.101682E-6,9.206967E-1,-2.3048419E-1,-1.0258437E0,2.8649895E0,-6.866689E-1,5.3213775E-1,1.3188901E0,-1.1240069E0,3.9351697E0,-5.14033E-1,-3.832541E-1,-1.8993976E0,2.041678E0,-2.202772E-1],"categories":[],"categories_nodes":[],"categories_segments":[],"categories_sizes":[],"default_left":[1,1,1,1,1,1,1,0,0,0,0,0,0,0,0],"id":77,"left_children":[1,3,5,7,9,11,13,-1,-1,-1,-1,-1,-1,-1,-1],"loss_changes":[1.5499828E5,5.534731E5,2.0322789E5,1.682182E4,2.6457138E5,1.3449483E5,2.4833756E5,0E0,0E0,0E0,0E0,0E0,0E0,0E0,0E0],"parents":[2147483647,0,0,1,1,2,2,3,3,4,4,5,5,6,6],"right_children":[2,4,6,8,10,12,14,-1,-1,-1,-1,-1,-1,-1,-1],"split_conditions":[2.5E0,1.5E0,7.5E0,2.5E0,3.85E1,6.5E0,8.5E0,2.6377803E-1,-2.2480138E-1,7.87034E-1,-1.02806605E-1,-7.665082E-2,-3.7987953E-1,4.083356E-1,-4.4055443E-2],"split_indices":[1,1,1,0,0,1,1,0,0,0,0,0,0,0,0],"split_type":[0,0,0,0,0,0,0,0,0,0,0,0,0,0,0],"sum_hessian":[7.304E5,1.4624E5,5.8416E5,7.3078E4,7.3162E4,3.65516E5,2.18644E5,2.936E3,7.0142E4,5.5564E4,1.7598E4,2.92369E5,7.3147E4,7.2729E4,1.45915E5],"tree_param":{"num_deleted":"0","num_feature":"8","num_nodes":"15","size_leaf_vector":"0"}},{"base_weights":[5.302052E-6,-1.5136568E-1,1.3644029E0,4.4000424E-2,-1.7161076E0,1.6363437E0,-1.5960628E0,-1.8187504E-1,1.6333487E0,-2.5070596E0,-1.0414876E0,4.9779382E-1,2.5721476E0,1.8837959E0,-1.9741839E0],"categories":[],"categories_nodes":[],"categories_segments":[],"categories_sizes":[],"default_left":[1,1,1,1,1,1,1,0,0,0,0,0,0,0,0],"id":78,"left_children":[1,3,5,7,9,11,13,-1,-1,-1,-1,-1,-1,-1,-1],"loss_changes":[1.5085008E5,2.009843E5,5.872536E4,2.0982772E5,3.8936797E4,7.1176734E4,8.078835E3,0E0,0E0,0E0,0E0,0E0,0E0,0E0,0E0],"parents":[2147483647,0,0,1,1,2,2,3,3,4,4,5,5,6,6],"right_children":[2,4,6,8,10,12,14,-1,-1,-1,-1,-1,-1,-1,-1],"split_conditions":[9.5E0,8.5E0,1.15E1,7.5E0,2.35E1,5.5E0,5.5E0,-3.637501E-2,3.2666975E-1,-5.014119E-1,-2.0829752E-1,9.955876E-2,5.144295E-1,3.7675917E-1,-3.9483678E-1],"split_indices":[1,1,4,1,0,4,0,0,0,0,0,0,0,0,0],"split_type":[0,0,0,0,0,0,0,0,0,0,0,0,0,0,0],"sum_hessian":[7.304E5,6.5746E5,7.294E4,5.84485E5,7.2975E4,6.6804E4,6.136E3,5.11756E5,7.2729E4,3.359E4,3.9385E4,3.0138E4,3.6666E4,6.01E2,5.535E3],"tree_param":{"num_deleted":"0","num_feature":"8","num_nodes":"15","size_leaf_vector":"0"}},{"base_weights":[4.232855E-6,2.7439794E-1,-7.322811E-1,-4.0633288E-1,1.1611214E0,-1.7655813E0,-5.2951057E-2,-5.8041495E-1,5.085882E-1,2.5278034E0,2.4935634E-1,-5.3132004E-1,-2.097969E0,1.1039587E0,-1.2108235E0],"categories":[],"categories_nodes":[],"categories_segments":[],"categories_sizes":[],"default_left":[1,1,1,1,1,1,1,0,0,0,0,0,0,0,0],"id":79,"left_children":[1,3,5,7,9,11,13,-1,-1,-1,-1,-1,-1,-1,-1],"loss_changes":[1.4676295E5,3.2071222E5,1.397501E5,4.787248E4,2.8752906E5,3.239661E4,1.6090722E5,0E0,0E0,0E0,0E0,0E0,0E0,0E0,0E0],"parents":[2147483647,0,0,1,1,2,2,3,3,4,4,5,5,6,6],"right_children":[2,4,6,8,10,12,14,-1,-1,-1,-1,-1,-1,-1,-1],"split_conditions":[3.85E1,5.5E0,1.05E1,4.25E1,4.5E0,3.5E0,1.15E1,-1.1608299E-1,1.0171764E-1,5.055607E-1,4.987127E-2,-1.0626401E-1,-4.195938E-1,2.2079174E-1,-2.4216472E-1],"split_indices":[5,4,4,0,1,3,4,0,0,0,0,0,0,0,0],"split_type":[0,0,0,0,0,0,0,0,0,0,0,0,0,0,0],"sum_hessian":[7.304E5,5.31313E5,1.99087E5,3.00569E5,2.30744E5,7.8969E4,1.20118E5,2.52522E5,4.8047E4,9.2336E4,1.38408E5,1.6755E4,6.2214E4,6.0084E4,6.0034E4],"tree_param":{"num_deleted":"0","num_feature":"8","num_nodes":"15","size_leaf_vector":"0"}},{"base_weights":[2.7213646E-6,-1.0902162E0,1.8095635E-1,-1.4455621E0,5.284825E-1,3.472589E-1,-1.7341982E0,-1.2472131E0,-9.412158E0,3.4248078E0,-2.9535592E-1,5.1226817E-2,6.853165E0,-9.473923E0,8.505007E-1],"categories":[],"categories_nodes":[],"categories_segments":[],"categories_sizes":[],"default_left":[1,1,1,1,1,1,1,0,0,0,0,0,0,0,0],"id":80,"left_children":[1,3,5,7,9,11,13,-1,-1,-1,-1,-1,-1,-1,-1],"loss_changes":[1.4409302E5,5.9806414E4,1.9951486E5,1.3471012E5,4.466172E4,1.1100809E6,1.0012512E6,0E0,0E0,0E0,0E0,0E0,0E0,0E0,0E0],"parents":[2147483647,0,0,1,1,2,2,3,3,4,4,5,5,6,6],"right_children":[2,4,6,8,10,12,14,-1,-1,-1,-1,-1,-1,-1,-1],"split_conditions":[5E-1,4.15E1,4.65E1,4.05E1,4.35E1,4.45E1,4.75E1,-2.4944262E-1,-1.8824316E0,6.8496156E-1,-5.9071183E-2,1.0245363E-2,1.370633E0,-1.8947846E0,1.7010014E-1],"split_indices":[6,0,0,0,0,0,0,0,0,0,0,0,0,0,0],"split_type":[0,0,0,0,0,0,0,0,0,0,0,0,0,0,0],"sum_hessian":[7.304E5,1.03973E5,6.26427E5,8.5257E4,1.8716E4,5.76378E5,5.0049E4,8.3187E4,2.07E3,4.144E3,1.4572E4,5.51294E5,2.5084E4,1.2529E4,3.752E4],"tree_param":{"num_deleted":"0","num_feature":"8","num_nodes":"15","size_leaf_vector":"0"}},{"base_weights":[-1.0150465E-6,3.9006367E-1,-5.386189E-1,-1.315086E-1,7.4302855E0,-8.208576E0,-1.5569144E-1,2.1379864E-1,-9.12578E0,5.4230785E0,1.5420208E1,-5.9123573E0,-8.960349E0,2.2925484E0,-5.880631E-1],"categories":[],"categories_nodes":[],"categories_segments":[],"categories_sizes":[],"default_left":[1,1,1,1,1,1,1,0,0,0,0,0,0,0,0],"id":81,"left_children":[1,3,5,7,9,11,13,-1,-1,-1,-1,-1,-1,-1,-1],"loss_changes":[1.5345442E5,1.5555235E6,9.010319E5,1.2249275E6,4.68514E5,2.5129312E4,3.0930528E5,0E0,0E0,0E0,0E0,0E0,0E0,0E0,0E0],"parents":[2147483647,0,0,1,1,2,2,3,3,4,4,5,5,6,6],"right_children":[2,4,6,8,10,12,14,-1,-1,-1,-1,-1,-1,-1,-1],"split_conditions":[2.95E1,2.75E1,3.05E1,2.65E1,2.0165E3,1.5E0,3.35E1,4.2759728E-2,-1.8251561E0,1.0846157E0,3.0840416E0,-1.1824715E0,-1.7920698E0,4.5850968E-1,-1.1761262E-1],"split_indices":[0,0,0,0,2,3,0,0,0,0,0,0,0,0,0],"split_type":[0,0,0,0,0,0,0,0,0,0,0,0,0,0,0],"sum_hessian":[7.304E5,4.23618E5,3.06782E5,3.944E5,2.9218E4,1.4587E4,2.92195E5,3.79819E5,1.4581E4,2.3353E4,5.865E3,3.6E3,1.0987E4,4.3857E4,2.48338E5],"tree_param":{"num_deleted":"0","num_feature":"8","num_nodes":"15","size_leaf_vector":"0"}},{"base_weights":[-1.7386411E-6,-8.443839E-1,2.1096304E-1,1.1131966E0,-1.0152719E0,-3.8817102E-1,6.590711E-1,-8.0829674E-1,2.4065564E0,-1.7239658E0,-5.1606387E-1,-6.259419E-1,8.609013E-1,1.1488136E0,-6.009721E-1],"categories":[],"categories_nodes":[],"categories_segments":[],"categories_sizes":[],"default_left":[1,1,1,1,1,1,1,0,0,0,0,0,0,0,0],"id":82,"left_children":[1,3,5,7,9,11,13,-1,-1,-1,-1,-1,-1,-1,-1],"loss_changes":[1.3011008E5,4.8844766E4,1.5689648E5,2.9135732E4,4.7507562E4,7.426631E4,2.0631834E5,0E0,0E0,0E0,0E0,0E0,0E0,0E0,0E0],"parents":[2147483647,0,0,1,1,2,2,3,3,4,4,5,5,6,6],"right_children":[2,4,6,8,10,12,14,-1,-1,-1,-1,-1,-1,-1,-1],"split_conditions":[2.0135E3,4.5E0,2.5E0,4.5E0,2.35E1,4.25E1,3.65E1,-1.6165935E-1,4.813113E-1,-3.4479317E-1,-1.03212774E-1,-1.2518838E-1,1.7218027E-1,2.2976272E-1,-1.2019443E-1],"split_indices":[2,0,6,1,0,0,0,0,0,0,0,0,0,0,0],"split_type":[0,0,0,0,0,0,0,0,0,0,0,0,0,0,0],"sum_hessian":[7.304E5,1.46007E5,5.84393E5,1.1722E4,1.34285E5,2.50058E5,3.34335E5,4.716E3,7.006E3,5.5497E4,7.8788E4,2.1007E5,3.9988E4,2.40759E5,9.3576E4],"tree_param":{"num_deleted":"0","num_feature":"8","num_nodes":"15","size_leaf_vector":"0"}},{"base_weights":[-9.851582E-7,-4.53101E-1,3.8617116E-1,-5.2008286E-2,-9.25138E0,7.9406834E0,-2.1637544E-1,-3.7734303E-1,6.789501E0,-3.9776235E0,-1.1864169E1,3.2517378E0,1.2626187E1,-4.36144E0,1.4381298E-1],"categories":[],"categories_nodes":[],"categories_segments":[],"categories_sizes":[],"default_left":[1,1,1,1,1,1,1,0,0,0,0,0,0,0,0],"id":83,"left_children":[1,3,5,7,9,11,13,-1,-1,-1,-1,-1,-1,-1,-1],"loss_changes":[1.2780181E5,1.1859938E6,1.794943E6,7.154263E5,2.0185962E5,6.3990325E5,5.452413E5,0E0,0E0,0E0,0E0,0E0,0E0,0E0,0E0],"parents":[2147483647,0,0,1,1,2,2,3,3,4,4,5,5,6,6],"right_children":[2,4,6,8,10,12,14,-1,-1,-1,-1,-1,-1,-1,-1],"split_conditions":[2.35E1,2.25E1,2.55E1,2.15E1,4.5E0,2.45E1,2.75E1,-7.546861E-2,1.3579003E0,-7.955247E-1,-2.372834E0,6.503476E-1,2.5252376E0,-8.7228805E-1,2.8762598E-2],"split_indices":[0,0,0,0,4,0,0,0,0,0,0,0,0,0,0],"split_type":[0,0,0,0,0,0,0,0,0,0,0,0,0,0,0],"sum_hessian":[7.304E5,3.36077E5,3.94323E5,3.21425E5,1.4652E4,2.9127E4,3.65196E5,3.06835E5,1.459E4,4.855E3,9.797E3,1.4559E4,1.4568E4,2.9196E4,3.36E5],"tree_param":{"num_deleted":"0","num_feature":"8","num_nodes":"15","size_leaf_vector":"0"}},{"base_weights":[1.287355E-7,6.9178224E-1,-2.966372E-1,1.9095673E-1,7.776796E0,-5.952963E0,4.520745E-2,7.4873364E-1,-7.0461826E0,1.2209016E1,4.8221073E0,-1.5632948E0,-7.388256E0,8.277087E0,-2.1298167E-1],"categories":[],"categories_nodes":[],"categories_segments":[],"categories_sizes":[],"default_left":[1,1,1,1,1,1,1,0,0,0,0,0,0,0,0],"id":84,"left_children":[1,3,5,7,9,11,13,-1,-1,-1,-1,-1,-1,-1,-1],"loss_changes":[1.4988462E5,7.778087E5,9.884469E5,8.264489E5,1.89464E5,1.8354606E5,1.02457606E6,0E0,0E0,0E0,0E0,0E0,0E0,0E0,0E0],"parents":[2147483647,0,0,1,1,2,2,3,3,4,4,5,5,6,6],"right_children":[2,4,6,8,10,12,14,-1,-1,-1,-1,-1,-1,-1,-1],"split_conditions":[1.55E1,1.45E1,1.75E1,1.35E1,4.5E0,1.5E0,1.85E1,1.4974673E-1,-1.4092366E0,2.4418032E0,9.6442145E-1,-3.1265897E-1,-1.4776512E0,1.6554174E0,-4.2596336E-2],"split_indices":[0,0,0,0,1,3,0,0,0,0,0,0,0,0,0],"split_type":[0,0,0,0,0,0,0,0,0,0,0,0,0,0,0],"sum_hessian":[7.304E5,2.19202E5,5.11198E5,2.04731E5,1.4471E4,2.9133E4,4.82065E5,1.90082E5,1.4649E4,5.787E3,8.684E3,7.179E3,2.1954E4,1.4659E4,4.67406E5],